Perovskite,0,1,2,3,4,5,6,7,8,9,10,11,12,13,14,15,16,17,18,19,20,21,22,23,24,25,26,27,28,29,30,31,32,33,34,35,36,37,38,39,40,41,42,43,44,45,46,47,48,49,50,51,52,53,54,55,56,57,58,59,60,61,62,63,64,65,66,67,68,69,70,71,72,73,74,75,76,77,78,79,80,81,82,83,84,85,86,87,88,89,90,91,92,93,94,95,96,97,98,99,100,101,102,103,104,105,106,107,108,109,110,111,112,113,114,115,116,117,118,119,120,121,122,123,124,125,126,127,128,129,130,131,132,133,134,135,136,137,138,139,140,141,142,143,144,145,146,147,148,149,150,151,152,153,154,155,156,157,158,159,160,161,162,163,164,165,166,167,168,169,170,171,172,173,174,175,176,177,178,179,180,181,182,183,184,185,186,187,188,189,190,191,192,193,194,195,196,197,198,199,200,201,202,203,204,205,206,207,208,209,210,211,212,213,214,215,216,217,218,219,220,221,222,223,224,225,226,227,228,229,230,231,232,233,234,235,236,237,238,239,240,241,242,243,244,245,246,247,248,249,250,251,252,253,254,255,256,257,258,259,260,261,262,263,264,265,266,267,268,269,270,271,272,273,274,275,276,277,278,279,280,281,282,283,284,285,286,287,288,289,290,291,292,293,294,295,296,297,298,299,300,301,302,303,304,305,306,307,308,309,310,311,312,313,314,315,316,317,318,319,320,321,322,323,324,325,326,327,328,329,330,331,332,333,334,335,336,337,338,339,340,341,342,343,344,345,346,347,348,349,350,351,352,353,354,355,356,357,358,359,360,361,362,363,364,365,366,367,368,369,370,371,372,373,374,375,376,377,378,379,380,381,382,383,384,385,386,387,388,389,390,391,392,393,394,395,396,397,398,399,400,401,402,403,404,405,406,407,408,409,410,411,412,413,414,415,416,417,418,419,420,421,422,423,424,425,426,427,428,429,430,431,432,433,434,435,436,437,438,439,440,441,442,443,444,445,446,447,448,449,450,451,452,453,454,455,456,457,458,459,460,461,462,463,464,465,466,467,468,469,470,471,472,473,474,475,476,477,478,479,480,481,482,483,484,485,486,487,488,489,490,491,492,493,494,495,496,497,498,499,500,501,502,503,504,505,506,507,508,509,510,511,512,513,514,515,516,517,518,519,520,521,522,523,524,525,526,527,528,529,530,531,532,533,534,535,536,537,538,539,540,541,542,543,544,545,546,547,548,549,550,551,552,553,554,555,556,557,558,559,560,561,562,563,564,565,566,567,568,569,570,571,572,573,574,575,576,577,578,579,580,581,582,583,584,585,586,587,588,589,590,591,592,593,594,595,596,597,598,599,600,601,602,603,604,605,606,607,608,609,610,611,612,613,614,615,616,617,618,619,620,621,622,623,624,625,626,627,628,629,630,631,632,633,634,635,636,637,638,639,640,641,642,643,644,645,646,647,648,649,650,651,652,653,654,655,656,657,658,659,660,661,662,663,664,665,666,667,668,669,670,671,672,673,674,675,676,677,678,679,680,681,682,683,684,685,686,687,688,689,690,691,692,693,694,695,696,697,698,699,700,701,702,703,704,705,706,707,708,709,710,711,712,713,714,715,716,717,718,719,720,721,722,723,724,725,726,727,728,729,730,731,732,733,734,735,736,737,738,739,740,741,742,743,744,745,746,747,748,749,750,751,752,753,754,755,756,757,758,759,760,761,762,763,764,765,766,767,similarity
SrCoO3,0.018416557,-0.03354316,-0.0448285,0.002262424,0.02825605,0.04221053,-0.047259912,-0.004586759,-0.026454255,0.021375557,-0.009344942,-0.042889558,-0.057624474,-0.014959469,-0.001119067,0.031433087,-0.002793308,-0.01883233,-0.038286775,-0.031497203,0.16621129,-0.011309616,0.010203737,-0.019782342,-0.001539101,0.012655681,0.010261435,0.020013796,-0.023200853,0.007766871,0.019820191,-0.012836359,0.08435871,-0.006934925,-0.014826114,-0.0678731,-0.009466556,0.03430167,-0.037198756,0.06940328,-0.027537847,-0.012167036,-0.002722469,-0.044254284,0.012872321,0.000668259,-0.01341024,-0.011535841,-0.06365541,0.022968695,0.006513419,-0.005408686,0.035656214,-0.039305165,-0.020143125,-0.03635532,0.046100903,0.028504722,-0.03178647,0.025720183,-0.00773883,0.013541428,-0.042344384,-0.045963187,0.002764901,-0.017897222,-0.016069463,-0.003894592,-0.011460261,-0.025376258,0.012575746,-0.06963162,-0.051514793,-0.04653836,0.017002946,-0.022809446,0.045031346,-0.057240963,-0.023536235,-0.07269622,0.017784629,-0.02145244,0.007658375,-0.001797463,-0.005751896,0.031132456,0.024501914,-0.030332247,0.022951342,0.12178087,-0.031919997,-0.006302934,-0.04168425,-0.030002229,0.03705274,-0.013675232,0.000792272,0.013808862,-0.042025346,0.011523093,-0.021551523,-0.009058198,-0.059019495,0.021506531,-0.029415295,-0.016763214,-0.053594913,-0.014984392,-0.02014124,-0.014546544,0.009509358,-0.022209156,0.005196171,-0.060666002,0.107619755,0.035085578,-0.03331479,-0.04938176,0.05225901,0.08423282,-0.036525667,-0.00487008,-0.044338457,-0.022403436,0.000875274,0.010445266,0.008125696,-0.011013459,0.03764472,-0.01012575,0.13155761,-0.012354587,-0.001359746,-0.007788319,-0.028332517,-0.01295575,0.05062885,-0.03212655,-0.014106302,0.07153363,0.06434448,0.004230179,0.020578858,0.014167011,0.01845515,0.001466542,0.028350491,0.06034187,0.034473434,0.09681504,-0.011263106,-0.007088397,-0.016396102,-0.034651108,0.027768873,-0.03701441,-0.03864992,0.05222288,1.62E-05,-0.01620452,-0.015954569,-0.06648408,0.023633072,-0.03364114,0.022764172,0.047077123,0.016272664,-0.025986928,-0.022231111,0.012462389,0.028600547,0.034418494,-0.005117571,-0.03971137,-0.04532531,-0.0555229,-0.017687744,0.006670822,-0.006538222,0.04078331,-0.07431803,0.043327227,-0.019606357,-0.031706758,0.055534422,0.018025976,-0.043807175,0.019944979,-0.024388244,-0.046867672,-0.004412132,-0.001829266,-0.010731922,0.10971103,-0.049879897,-0.06677589,-0.0351528,-0.024543822,-0.033841603,-0.013152546,0.0338508,0.003911516,-0.014308618,0.0512061,0.004200513,-0.001460945,-0.05203616,0.043222316,-0.029509908,-0.000302265,-0.007294786,-0.013486614,-0.004986716,0.006404294,-0.043088052,-0.001282834,0.003062565,0.011247581,0.032020576,-0.024380518,-0.001497644,0.002913463,0.030459112,0.0165854,0.009168491,0.04835268,-0.006943962,0.046963148,-0.077795394,0.033782266,0.021902945,0.008014662,-0.024800137,0.013642562,-0.012159397,-0.013309318,-0.08900507,0.038137592,0.021637898,0.048342198,-0.003236889,0.017314205,0.01661288,-0.034533136,0.008621722,-0.018694945,-0.020356063,-0.022106795,-0.015803326,0.011438674,0.000892035,-0.022359794,-0.011872557,0.029920278,-0.00385647,-0.035841975,-0.009228254,0.007279231,0.017707674,0.031655416,-0.02711914,-0.010411564,0.018453613,-0.052563433,0.049746472,0.019197864,0.017609123,0.04748896,0.028353006,-0.010652616,-0.04667055,-0.023006462,-0.06118712,-0.026665393,-0.009277453,-0.034322582,-0.031828377,-0.008216751,-0.035098772,0.14766115,0.011581052,-0.031866413,-0.006654576,0.004598328,0.04977729,-0.011796376,0.027275708,-0.031554937,0.026861062,-0.001672934,0.07512253,-5.78E-05,-0.020187454,0.005169063,-0.013452959,0.027880926,0.18248387,0.017110022,0.03828804,0.001994215,-0.03382873,-0.015619617,-0.043198235,0.022515295,-0.057086375,-0.023187902,-0.016816333,-0.025813278,-0.002757246,0.000906312,0.021807684,0.020477278,-0.034088448,0.04789137,0.07596597,0.030545259,-0.017732523,-0.054974385,0.037755907,-0.013302397,-0.04720297,0.009531295,-0.004788576,-0.015898315,-0.06521901,0.03887854,-0.011516819,-0.009903926,0.013634403,0.05426365,0.006638779,0.00687524,0.012546202,-0.038305808,0.018364316,0.038633958,-0.001885422,0.005687196,-0.05648751,0.041290842,0.008318258,0.008442359,0.04141476,0.041209023,0.000451368,0.012092209,0.017273694,-0.04801845,0.07153606,-0.004310815,-0.046880804,0.015769199,0.015390015,0.005564344,-0.009939748,-0.05704775,-0.067575745,0.004640453,-0.039178826,-0.01780229,0.004678009,-0.06260807,-0.011174385,0.028996073,0.025923442,-0.01011485,-0.024448527,0.021848748,0.005007006,-0.002377893,0.05394359,0.001122386,0.008957419,-0.008072577,0.09084069,0.057515662,0.007487802,0.042981304,0.05043344,-0.009529023,0.004649767,-0.011566202,0.05621944,-0.045409482,-0.022497116,-0.03399127,-0.028751561,-0.06826107,-0.020138744,-0.048184954,-0.008476284,-0.05197499,-0.025220502,-0.011597174,-0.014999819,-0.039971534,-0.021463381,-0.05415378,0.00444586,0.021920348,-0.022820937,0.012379866,-0.001675427,0.037923094,0.015227844,-0.024351334,0.01976252,-0.0543444,-0.014196443,-0.006774111,-0.049493756,0.019919803,0.016973617,0.033749152,-0.016072763,0.007220781,-0.029154219,0.025562482,-0.012237052,-0.020533182,-0.044248644,0.059067786,0.011126123,-0.029959744,0.021340659,-0.0255788,-0.075480424,-0.021547586,0.001743272,0.002147569,-0.053185396,0.053468093,0.054800384,-0.01457355,0.006032282,-0.013787476,0.008428396,-0.05516803,-0.004700174,-0.027490096,-0.003683691,-0.00816068,-0.019575728,0.012229691,0.007563659,-0.017397553,-0.023602128,-0.047613014,0.003939902,-0.016702933,-0.04551537,0.037780102,-0.01746456,-0.04586155,-0.032817498,-0.01563251,-0.016479284,-0.05288948,0.032952823,-0.03837318,-0.03763838,-0.025075072,-0.01960724,-0.025205312,0.042071566,-0.03352594,0.004396662,-0.000773563,-0.076911815,0.002360429,0.015126554,0.027844705,-0.036468767,0.013210409,-0.028853575,-0.022950418,0.029961979,-0.014243979,0.012596507,-0.01784038,-0.035840213,0.002190897,0.015964242,-0.032712184,0.027237236,-0.006057845,-0.015827263,0.04005375,0.004962558,-0.027860006,0.048222702,-0.011204358,-0.017064335,0.006479244,0.021360338,-0.04657259,0.0399518,0.010943897,-0.013447527,-0.03477333,0.002355157,-0.019204762,0.059578534,0.003458846,0.024926135,-0.028925192,0.010154267,0.006079617,-0.03385814,-0.012856734,0.008626764,0.000391812,-0.003403666,-0.01392973,-0.028937915,-0.020431587,0.02709482,-0.035205066,-0.0610715,0.005018825,-0.002553659,0.011605085,-0.003332546,-0.041136295,-0.008860637,-0.023042666,-0.069804914,0.04394275,-0.022824593,0.050271567,0.043088965,-0.048774317,0.018729644,-0.025650345,0.012629118,-0.03862423,-0.026251353,0.01840947,0.001732191,-0.01143257,-0.006993517,0.025945356,-0.035117086,-0.022365425,-0.004718811,-0.021314902,-0.00266454,0.040545274,0.034048557,0.007542281,0.007740754,-0.005085437,0.03221015,-0.09543659,-0.06430992,-0.007534597,0.02460524,-0.09558635,-0.025312882,0.003735062,0.03205673,-0.042966824,-0.014524226,0.018037269,0.029003313,0.026105527,-0.021848872,0.056124747,0.013929332,-0.022473888,0.019887164,-0.022784978,-0.014646255,-0.014703125,-0.019771196,-0.014236052,0.009116864,-0.036318958,0.03877952,0.006973165,0.016359814,0.049786553,-0.000372559,0.03144344,0.02594876,0.003264179,-0.023492938,0.029200416,-0.04264832,-0.043740887,0.023863517,-0.005242049,-0.000756797,-0.008767084,-0.01702471,0.13066797,0.024684161,0.011915608,-0.035861757,0.004408724,-0.012888133,0.027491527,-0.011716256,0.049254507,-0.010178716,0.00596294,0.048233084,0.07013508,0.024198817,-0.02314538,-0.015696185,-0.006265041,0.042401463,0.015793918,0.002910814,0.018063996,-0.001444517,-0.003304654,-0.022588434,-0.02188392,-0.03806592,-0.056677114,0.011220445,0.023965731,-0.029419579,-0.04694215,-0.011830523,-0.0054073,0.001177098,-0.049269374,0.07830493,-1.65E-05,0.1269104,0.04675065,-0.001251789,-0.03069905,-0.0589771,0.022473386,-0.011547029,0.007130677,-0.010838274,0.036922492,-0.019301293,0.007401328,-0.052130677,0.01178346,0.034246158,0.024955612,0.09094722,0.027141405,-0.03972334,-0.0078685,-0.02010142,0.004732979,-0.049415033,0.030600404,-0.03316076,-0.022891095,-0.015031693,-0.013029808,-0.07222327,0.001821668,0.003724732,-0.030163007,-0.008412968,-0.038668223,0.019395292,-0.033367883,-0.015687644,-0.012578646,0.009773862,-0.016608307,0.001848172,-0.05849548,-0.027530026,-0.04215362,-0.038364813,-0.018686408,-0.012044929,-0.007069008,-0.00147062,0.03512005,0.006892544,-0.01637259,0.074963056,0.017904643,-0.019098535,0.015055356,-0.008053042,-0.010887992,-0.029626057,-0.023793858,0.05784015,0.021757163,0.033577066,-0.055743817,0.019189065,-0.024626072,-0.01280613,-0.027123826,-0.012103614,0.021693297,0.02289953,0.024507059,-0.024965273,-0.04289234,0.015547935,-0.04986227,0.01388812,-0.025806392,-0.024083398,-0.028991401,-0.03101872,-0.07755494,-0.04935858,-0.06935099,0.004286955,-0.015752247,0.0859128,0.030406894,0.009439422,-0.00456986,0.007268383,-0.000676647,0.014965756,0.008030864,-0.021727089,0.007438947,0.17994247,0.013400203,-0.052073102,0.005440018,-0.002868592,-0.043809786,-0.020341465,0.00122095,0.010561819,0.043869738,0.029726423,0.025510374,0.022524824,0.054564305,0.020136196,-0.03324397,-0.02852209,-0.00704615,0.018801982,-0.0249913,0.00063066,-0.021377577,0.001191516,0.029535048,-0.007223389,0.012325848,0.014714886,-0.08202657,0.009332679,-0.007125265,-0.010621243,-0.028317206,0.007002072,0.036787152,0.01305639,0.04754467,0.019374222,-0.009800663,-0.029218499,0.00196714,0.32324946
LaCoO3,0.06702829,-0.030900104,-0.006000264,-0.007412564,-0.010539908,0.02163061,0.010529904,-0.043562204,0.03037707,-0.015814444,0.016904604,0.011495615,-0.05973104,0.008017257,-0.018792668,-0.006782117,-0.009963202,-0.004762555,0.00911459,-0.030122945,0.059972327,-0.001242437,0.017679729,-0.028183138,-0.001504596,-0.028400945,0.024501495,-0.020908546,0.019660555,0.021654204,0.016729074,-0.07411946,0.083960384,-0.014733606,-0.03402174,0.061327837,-0.010573011,0.03520655,-0.008811022,-0.00869896,-0.013218924,-0.03280836,-0.044891197,-0.012267823,-0.016083278,0.0248436,0.029125463,0.032697007,0.001748927,-0.015245721,0.018368848,-0.027396677,-0.045842104,-0.007478653,0.021083755,-0.044897225,-0.010001226,0.00973786,-0.008703373,0.030943424,-0.010702738,-0.031130634,-0.017280843,-0.05667094,-0.000349728,0.05650647,-0.057709146,0.008090827,-0.013455404,-0.011877401,0.006981805,-0.083141655,-0.012176424,-0.02662115,-0.040176764,0.05178428,-0.008723722,-0.012975383,-0.010293903,-0.03177909,-0.018321924,-0.023453359,-0.006259191,0.014993665,0.036098793,-0.06418806,0.002677553,-0.020225462,-0.030525036,0.119232684,0.001162815,-0.018632665,-0.021789191,-0.000746205,0.062326673,0.001323199,-0.002365212,-0.017984774,-0.06657236,0.04544084,0.013782579,-0.05690924,0.00123538,-0.036618937,-0.029688822,0.00070407,-0.0195,0.014248052,-0.04539126,-0.016457083,-0.008835237,0.014983545,0.011646317,-0.000192269,0.05854047,0.00985804,-0.06447404,-0.014018122,-0.022633722,0.03685075,-0.006012403,-0.024497418,0.007378107,-0.019968184,-0.028900411,-0.011464333,-0.012516399,0.04187766,0.022262955,0.006574307,0.0840273,-0.013449261,-0.02379801,-0.045878317,-0.015676491,-0.027775131,0.048169464,-0.005415064,0.005507187,0.025032546,0.05371187,0.010896427,-0.056250446,-0.011002583,0.055897497,-0.036586042,0.044103853,0.07338789,0.021787778,0.12432175,-0.024800511,-0.051881526,0.023672918,-0.013516262,-0.012771519,0.028451122,-0.005651779,0.001111157,-0.008112662,0.008114927,0.018394833,0.028775765,-0.033795938,-0.02466297,-0.013888309,0.013696597,-0.007899423,-0.03509131,-0.046342198,-0.012435229,-0.018205445,0.009035682,0.017240848,0.006711658,-0.012839414,-0.00149186,0.009511823,0.000185844,-0.021779621,0.03940674,-0.020363756,0.00242448,-0.005683969,0.01362507,0.028584221,-0.001496292,-0.025488093,0.007069199,-0.04825647,-0.012894795,-0.008319668,-0.024065768,-0.023277791,0.116052285,-0.08423568,0.009220465,-0.013274147,-0.028523853,-0.053732727,0.015236336,0.04996698,-0.014832209,-0.043524824,0.020126728,0.03897106,-0.002021254,0.012274328,-0.017053086,-0.030795002,-0.008138767,-0.00642467,-0.05328486,0.004067828,-0.034890596,0.000330422,-0.024588097,-0.031566173,-0.03527427,0.051341135,0.031685844,0.037727114,0.020486718,-0.014394363,-0.014983876,-0.03377362,0.04027486,-0.013405276,0.009180904,-0.11847165,0.036571916,0.029749896,-0.007039571,-0.008354827,0.012750375,-0.022109436,-0.020184884,-0.007841508,0.0492706,0.02769374,-0.048725218,-0.033450827,-0.011467635,-0.04305516,0.000248537,-0.008023317,-0.034994908,-0.036167607,-0.01519982,-0.013581178,0.004111332,-0.040693566,-0.05041804,0.003972809,0.016930073,-0.017415144,-0.006816258,-0.04229921,0.00171837,-0.02960162,-0.026392836,0.003919462,0.044030815,0.031528555,0.014469964,0.06421517,-0.001366942,0.021598492,-0.004003396,-0.021666933,-0.036676824,0.035981547,0.030777015,0.01893858,0.05126922,0.002695979,0.000218962,0.031786133,-0.005721135,-0.003018122,0.057103705,0.014846554,-0.010791488,-0.007319103,-0.028392596,0.06536456,0.009894243,-0.019583907,-0.03310158,0.0427718,0.020699043,0.098856516,-0.023149354,0.033231493,0.005359206,-0.008076621,0.009866237,0.11820818,0.024788823,-0.020112818,0.08003614,-0.019734401,-0.007941554,-0.043426532,-0.049579233,0.025484972,-0.015486934,-0.066035636,0.000746873,0.003933409,-0.03261255,-0.007863299,0.026731439,0.02847322,0.024997372,0.07963579,-0.024153432,-0.061161123,-0.012230861,-0.006737569,-0.015702996,0.028267285,0.048768215,0.040424887,-0.005798285,-0.061870072,-0.002226354,-0.055307634,0.001087311,-0.019362468,0.05341916,-0.007430206,0.071112745,0.0487836,0.042024475,-0.028350849,-0.008431061,-0.002552655,-0.000722278,-0.048221283,0.028889278,-0.005799704,0.015917879,-0.00674138,0.007409592,0.03493325,0.006581714,-0.014388341,-0.046776976,0.05607706,-0.011802907,-0.042055883,-0.00538996,-0.009335307,-0.025085893,0.026020296,-0.014656112,0.007299427,0.022659589,-0.049361978,0.024386264,0.02073801,-0.004903587,-0.044399284,-0.009177419,0.002711533,0.033834357,-0.030370247,0.0444872,-0.024099143,-0.037322063,0.019167112,0.025470305,-0.020738594,-0.056636706,0.08247032,0.064804524,0.003425188,0.04797609,0.027181054,-0.013867187,0.003359668,-0.048639555,0.092648864,-0.048875827,-0.032786734,0.007345429,-0.042936817,-0.046382986,-0.03142935,-0.005572281,-0.006691701,-0.038348287,-0.045906104,-0.029092453,-0.08209488,-0.021127382,-0.010608229,-0.04416594,-0.032417603,-0.007859217,-0.06786567,0.005152217,0.013131298,0.037651792,0.029470148,-0.016308445,0.004479457,0.031433206,-0.029155232,-0.024420016,-0.015677094,0.011846979,0.018197255,0.05791739,-0.018864574,-0.036504902,-0.036265492,0.016591543,-0.014577649,-0.001706671,-0.011812176,0.029685877,-0.05061933,-0.008569396,-0.04803684,-0.028890844,0.001999072,-0.06538943,0.03162447,0.07423785,-0.008101841,-0.007943527,0.053061895,-0.000206561,0.030771406,0.020113442,0.007988892,-0.02377635,0.018599173,-0.001934438,0.032178298,0.005252647,-0.03567121,-0.015921304,-0.024383627,0.026004618,-0.030091494,-0.009855761,-0.049310714,0.00537111,-0.05329649,0.025719794,-0.027962893,-0.09618103,-0.04645498,-0.009144335,-0.029619873,-0.02711601,0.013241517,0.053313185,-0.033797495,-0.034809332,-0.00913815,-0.07100782,0.04653771,-0.012766698,-0.040032376,0.02022803,-0.015055858,0.007430998,-0.043122623,0.024084272,-0.03675223,-0.025547255,0.04724275,0.028482143,0.031601194,-0.04315256,0.04720757,0.051319085,0.00511287,-0.031823974,0.059273373,-0.015971188,-0.023070699,-0.007408919,-0.03534415,-0.006454144,0.001771757,-0.07718078,0.009056254,-0.00011147,0.011291445,-0.047371373,-0.008043671,0.023415655,-0.015873998,0.019754894,-0.008159701,-0.005370222,-0.019162301,0.0089886,0.05478644,-0.021237537,0.057694543,-0.016233958,0.02217574,-0.019243238,-0.035928953,-0.003541472,-0.040743235,-0.02198721,0.018574527,-0.06631291,-0.040810466,-0.037509445,0.026506318,-0.00143202,-0.000810923,0.018713338,0.026482567,-0.037510615,-0.08196831,-0.006754972,-0.016727878,0.004100842,-0.05537588,0.006863247,-0.005929768,-0.029873468,-0.017580457,-0.017271176,-0.009564661,-0.002580821,0.001228382,-0.018338332,-0.03657122,-0.021790426,0.01759238,-0.028871628,-0.0025858,0.010386776,-0.007108182,0.044639144,0.032467198,-0.046245754,-0.007943161,-0.007485494,-0.022670219,-0.020846652,-0.006770577,0.001231096,-0.027022194,-0.040159862,0.008151273,-0.03908535,-0.003622322,-0.010174608,-0.026006397,-0.006591692,0.007337362,0.017401772,-0.033288464,-0.003485234,0.009815563,0.057525758,0.012833611,-0.001244667,0.006756799,-0.020883143,-0.035959702,-0.05882061,0.026219783,-0.015227856,-0.030546028,-0.031763524,0.034993082,-0.02148303,0.00952387,0.021461165,-0.029424684,0.012514905,0.026915018,0.06947038,0.026664285,-0.00402637,0.018381694,0.027806176,-0.037412174,0.021711692,-5.70E-05,-0.026900267,-0.024314998,-0.009813225,-0.04113001,0.15256768,-0.031108722,-0.02258888,0.036016043,0.010096811,0.01322757,-0.023793494,-0.08019244,0.025715068,0.009829192,-0.014268536,0.00332374,0.084894784,0.019300321,-0.045766585,0.07492984,-0.012422347,-0.00030905,0.002602867,0.06798038,-0.030924862,0.010316511,0.013404304,0.02530521,-0.015277742,0.036615677,-0.056566913,0.021219974,0.055097606,0.024803637,-0.015265974,-0.013180543,-0.028879398,-0.035831932,-0.026179112,0.058347583,0.026610175,0.004747632,-0.037719134,-0.016830023,-0.033029895,-0.001046243,-0.016545778,-0.027275747,-0.025280371,-0.00178954,0.002426579,0.015168428,0.010982636,-0.06414284,-0.01282801,0.038963586,0.039599992,0.003976026,0.04833078,-0.007615104,-0.04928543,-0.012937286,0.01828935,-0.0649393,0.0380875,-0.053818826,0.003451209,-0.02245049,-0.03884697,-0.028811757,0.00932142,-0.012394922,-0.015150801,-0.00404574,-0.012979196,0.001837741,-0.019094046,0.009750474,-0.015678266,0.021933768,-0.015363102,0.046478927,-0.049158134,-0.008675808,-0.023604024,-0.028344765,0.008799901,-0.03735387,-0.038366605,-0.004323396,-0.001391652,-0.006416316,-0.011991622,0.031625964,0.01942752,0.004074616,-0.016585883,0.010542176,-0.07873806,-0.04630073,-0.055679522,-0.0282671,0.005261567,-0.037625726,-0.014108576,-0.031660326,-0.005709993,-0.002559064,0.008191104,-0.028824253,-0.029513666,0.05580483,-0.053724527,0.05484881,-0.02819332,0.010127353,3.86E-05,-0.028579207,-0.020201808,0.020620938,-0.05748732,-0.020670973,-0.080701925,-0.02918791,-0.03429427,-0.043454155,0.00153021,0.11135305,-0.084904276,0.01380963,0.049589485,-0.002591871,0.036015086,0.037008777,-0.018362483,-0.029568365,0.025833596,0.09620025,0.009166681,-0.03890717,-0.007535547,-0.002989198,-0.00520271,-0.06219862,-0.010633218,0.048311874,-0.040556222,0.033269748,-0.027150592,0.009384685,0.016484082,0.10198346,-0.023855213,0.052299973,0.002340118,-0.012903684,-0.066691935,0.03572485,0.007163607,0.012793875,0.035806034,0.004213275,0.03327882,-0.07022993,-0.01955724,0.001527235,0.01771595,-0.011480662,0.004888912,-0.008775694,0.025219457,0.010908416,0.019507607,-0.065211736,-0.023139682,-0.0470182,-0.003792311,0.3188011
LaNiO3,0.06960652,0.014327944,-0.07825409,-0.013828588,-0.02860237,-0.006527013,-0.052500416,0.01908208,0.06996691,-0.013577279,-0.037648536,-0.06694634,-0.05417482,-0.042413063,-0.038021643,-0.013526382,-0.008409485,-0.04973928,-0.004483928,-0.06399555,0.12041763,-0.03815226,0.008602481,0.008923026,-0.026083352,0.027948998,-0.006179811,-0.00185351,0.005896285,0.03623437,0.040449314,0.045939043,0.10862211,-0.030041425,0.014142145,-0.04861744,0.030445939,-0.05225077,-0.003475688,-0.025048058,0.00393286,-0.07388167,-0.010898916,0.035323724,-0.039830312,-0.017786687,0.029969009,0.008291682,-0.033250105,-0.0619963,0.03699404,-0.001579995,0.001708649,0.04039683,-0.027058138,0.03323857,-0.026391057,0.010955257,-0.027899792,0.008781986,0.021449476,0.031012403,-0.022489492,-0.039321702,0.0221548,0.05402453,-0.020005073,-0.003891551,0.01739242,0.002072406,-0.0047294,-0.075557224,-0.07148782,-0.025529819,-0.043625053,-0.006228731,0.040890973,0.020000184,-0.022788731,-0.0072992,-0.057067875,-0.02247584,0.02756339,0.034083545,-0.0313669,-0.04579647,-0.004949635,0.001670132,0.012519075,0.08344508,0.018024156,0.03090626,-0.024958398,0.041483942,0.005042038,-0.004548475,0.01654529,0.007213395,-0.03299123,0.06307336,0.001918483,-0.007783335,-0.04700259,-0.021733986,-0.010923099,0.019944316,0.005210521,-0.032043345,-0.06212744,0.043998662,-0.031768795,-0.03592134,-0.050039135,-0.009345727,0.04207745,0.09501702,0.028541788,-0.032305777,-0.007448583,0.08005357,-0.07755579,-0.009228403,0.032006696,-0.018244872,0.04908193,-0.018885855,-0.021629984,0.045728493,0.054005917,-0.018254759,0.10776971,0.006122951,0.02074616,0.019223936,-0.0125444,0.06678368,0.012649101,-0.01757176,-0.032611158,0.07361797,0.095247135,-0.01696571,-0.026582254,-0.054114547,-0.037561867,0.02534032,0.015629651,0.101878785,0.05197312,0.09964396,-0.039875932,0.001665664,-0.006415578,0.008604119,0.016983036,0.015267397,0.005978434,-0.030889016,0.026187522,-0.021489486,0.033963498,0.035913292,-0.005504246,-0.044312745,0.025287857,-0.016941966,-0.01581277,0.013865936,0.013937392,-0.009967378,-0.036055345,0.047266822,-0.012518703,0.042257782,0.001733051,0.005860316,-0.010674438,0.003413464,-0.030371815,-0.010323735,-0.05534479,0.013420474,-0.07226084,0.0035409,-0.000323182,0.020604175,0.010752686,-0.039608292,-0.014019067,-0.083686054,-0.01745615,0.009422404,0.023431437,0.12723531,-0.033560667,-0.044462696,0.007154912,-0.027998578,-0.06584469,-0.008683056,0.010027176,0.03203724,-0.043503296,0.021583019,0.012028895,0.04821566,-0.019122442,-0.059004847,-0.059482146,0.007283351,-0.039312355,-0.030303577,0.017767843,-0.023482889,0.049097817,-0.027857225,0.010383325,-0.004540938,0.0171316,-0.001228597,-0.013954635,0.052670587,0.015659863,0.007145757,0.027550478,0.015730137,0.029322173,0.006679384,-0.060759276,0.034609634,-0.003716302,0.012032935,-0.006063666,-0.02904474,-0.042332083,0.029121172,0.024874605,0.003999392,0.022014728,0.010850226,0.026590226,0.025723938,0.001800651,-0.015304886,-0.044809293,0.005308667,-0.031557437,-0.039399337,0.007896664,-0.016765296,-0.018802123,-0.03404846,0.013782111,0.04408151,0.015741965,0.006365924,-0.003086847,0.05667394,0.003496256,-0.023908094,0.012523126,0.03522058,-0.028718285,-0.013505602,0.0800791,-0.008410997,-0.011456582,-0.004776988,0.006809054,-0.03523319,0.031806644,0.029452223,-0.002152335,0.001197963,-0.02692725,-0.002990741,0.018107884,-0.02011594,0.006357583,0.11813061,0.014000149,-0.056916162,0.006471665,-0.03773136,0.03641945,0.051367465,0.019611979,-0.012132358,0.06252988,-0.003174586,0.073715486,-0.007598549,-0.007056659,-0.001350448,0.028864421,-0.024296898,0.111100115,-0.005847578,0.007541592,0.023761742,-0.026616588,-0.04389341,-0.003672144,0.008186751,0.055675656,-0.066470705,0.01699246,-0.07066014,-0.008512329,-0.02430953,-0.049989555,-0.016921584,-0.005449077,0.036496952,0.09041433,-0.017110445,-0.036319096,-0.03824585,-0.07493944,-0.07889236,-0.04390762,0.046970926,0.02249335,0.015530471,-0.0468183,-0.015450296,-0.06698464,-0.005247466,-0.047156945,0.006129418,-0.027647179,0.03872089,-0.004607982,-0.017723443,-0.030716754,-0.009030418,-0.010307379,-0.05175166,0.019468954,0.017345255,-0.002892774,-0.023641577,0.004462967,-0.038650606,-0.013224509,0.001940588,0.043358807,-0.037849683,0.06454461,-0.050698534,-0.005695657,0.002036674,-0.06940612,-0.06876464,0.059079845,0.023707146,-0.009732313,0.036336575,-0.021663325,-0.003487155,0.03498871,-0.036262482,-0.017135102,0.012572537,0.008373437,-0.004272162,0.031393994,0.027916476,-0.029951967,-0.09511478,-0.020423159,0.064711794,-0.001591183,-0.035472617,0.09544756,0.113442115,0.025214447,-0.032895207,-0.002264306,-0.007757908,-0.003671972,-0.012644962,0.049497377,0.008215822,-0.028477516,-0.06343106,-0.027833886,-0.056018606,-0.037737835,0.004263163,0.013299805,0.002746282,-0.057675965,-0.043457128,-0.028601073,-0.016054032,-0.059980884,-0.01851741,0.013690828,0.022383023,-0.052114516,0.015977196,-0.023920506,0.001748872,0.01419553,-0.024019372,-0.027220963,-0.001907857,-0.00356978,0.023680452,0.017012391,-0.03053894,0.008672763,0.001573249,-0.029028887,0.001201468,-0.026654264,-0.016212549,-0.06607584,-0.011489066,0.012175201,0.023920923,0.03652149,0.013327277,-0.040499978,0.028175896,0.016574353,-0.06450882,-0.035058863,0.05302419,0.001055124,-0.052659374,0.06672792,-0.011451347,-0.048413552,-0.03781292,0.000186114,0.006414415,-0.005849429,-0.05518009,-0.015802829,-0.034838304,-0.040860172,-0.02393938,-0.000311752,-0.031993754,-0.027256865,-0.058077604,-0.07412222,0.015164969,-0.02472129,0.01793549,-0.019067775,-0.025291543,-0.088035315,-0.05322442,-0.00490281,-0.031837195,0.030142901,0.014587949,-0.005873698,-0.015883503,0.005215614,-0.053517263,-0.033894885,0.03876978,-0.058578033,-0.001281118,-0.02092993,0.019647092,-0.038328405,-0.004739438,-0.015814565,-0.024261335,0.022759024,-0.0215454,0.059903894,0.03755479,0.06337065,0.003961843,0.013186675,-0.02827164,0.015390109,-0.06175881,-0.029102536,-0.036893945,-0.06588126,0.046146777,0.033298504,-0.061817616,-0.04343472,-0.008342858,-0.034202706,-0.027052611,-0.060495533,0.034636874,-0.001006129,-0.00641508,0.02426507,-0.002408939,-0.021334382,0.013171361,0.10141125,-0.037781496,0.013888291,-0.023961028,-0.009816029,-0.030903036,-0.007365807,-0.009844471,-0.02137994,0.013505882,-0.016223127,0.022804642,0.001940485,-0.005910027,-0.022792695,0.022344867,-0.04361179,0.010083742,-0.026678868,-0.005770484,-0.081954785,-0.034693714,-0.014725184,0.038776368,-0.035124727,0.07383565,-0.030373136,0.044104185,-0.05957215,0.01747514,-0.014196773,0.025802832,0.000198228,0.04145783,-0.04209236,-0.012663785,-0.081278965,-0.051617905,-0.026134985,0.010393272,0.016247822,-0.022859318,0.008655742,-0.006794341,0.018268313,0.04212735,-0.00153794,-0.024655644,-0.019550323,0.034120888,0.028792266,-0.059484128,1.72E-05,0.005200037,0.015502913,-0.008884881,-0.034934122,0.054808624,-0.03681552,0.022801813,-0.018433899,0.005206089,0.020261178,-0.0190412,-0.001698871,0.008517943,0.023128526,-0.046448816,0.020258058,-0.01918312,0.02977436,0.018770915,0.033500485,0.021480637,-0.001918621,-0.040479712,-0.003988085,-0.00020395,-0.06016997,0.034828667,-0.015898354,0.038618222,0.005335963,-0.003972921,0.04633639,-0.012681395,0.023199853,-0.04764642,0.005800431,-0.018944716,0.006082925,-0.07352645,-0.017732069,0.120703936,-0.04957713,-0.04981712,-0.031488907,-0.022321276,0.018088806,-0.013578983,-0.013266179,-0.038941953,-0.03140972,0.009961195,0.04457715,0.06536245,0.044997245,-0.04205237,0.043319352,0.010523782,0.030139888,-0.014405471,0.05914844,-0.035675954,0.022140455,-0.025852779,0.006987404,0.019028697,0.013831817,-0.028209295,0.004275019,-0.006994207,0.02134333,-0.007536798,-0.026019955,-0.006969639,-0.021370916,-0.03368192,0.068920344,-0.023784619,0.08271158,-0.008228713,-0.052810445,-0.033640742,0.0507009,0.008746982,0.06763919,-0.014292153,-0.08407195,0.017406749,-0.011331742,-0.01628435,-0.014624395,0.014046337,0.07795151,0.0233871,0.0877175,0.023268543,-0.02804811,-0.004076347,-0.032213733,0.02203777,-0.04199882,-0.039168034,0.015589005,-0.05959684,0.000941116,-0.00707288,-0.054550957,0.057710145,-0.025438437,0.005611508,0.044551566,-0.016837709,0.016212868,-0.046318162,-0.03849345,-0.019091897,0.007233825,0.037417483,0.034905434,-0.025920125,0.06185659,-0.022221047,-0.009655522,-0.041360337,0.00518644,-0.006344801,0.009265795,0.00391701,-0.03363443,-0.012113907,0.03352765,-0.030482814,-0.050728418,-0.021246353,0.000878564,0.001527218,-0.019899005,-0.001027925,-0.037735056,0.021020135,0.011936378,-0.00215001,-0.035078228,-0.04012304,-0.011098341,0.017610472,-0.06508834,-0.062880345,-0.020366607,-0.043919455,-0.004185166,-0.026658494,0.02851651,0.0509769,0.04281873,-0.024261305,-0.010170982,0.000886235,0.03291932,-0.026236795,-0.017939322,0.021223415,-0.06655621,0.02069144,0.063343786,-0.035201665,0.050626803,0.015025187,0.016973702,-0.015721275,-0.006448984,-0.017641546,-0.04823236,-0.00073556,0.09775023,0.021989536,-0.06241184,0.004332395,-0.02894486,-0.012642342,0.011068585,0.07408508,-0.028863447,0.03836275,0.022823967,-0.017400268,0.005468698,0.044074364,0.09567508,-0.029784273,0.044718523,-0.00388985,0.016810862,-0.041624904,0.026894433,-0.052453745,0.001480713,-0.048292384,-0.051631942,-0.005111158,-0.04048201,0.010413324,0.011999847,0.012806802,-0.003970534,0.004223977,-0.050259415,0.02990609,-0.003274959,-0.00052999,-0.010462897,0.012274357,-0.061356593,0.012689677,0.31469235
BaRuO3,0.019536871,-0.003372458,-0.08693275,-0.010271334,-0.039935436,-0.020351108,-0.001772356,-0.028409366,0.01887416,0.01456766,0.03801474,-0.064435594,-0.051765148,-0.06312181,-0.017459765,-0.000590993,-0.009875349,-0.028792558,0.023032263,0.011100275,0.17806894,0.035722386,0.009826204,-0.043092143,-0.027097475,0.031530313,0.009981693,-0.016453264,0.038560536,0.014392722,-0.002103262,-0.03408681,0.08049155,-0.043620016,-0.031692725,-0.004436979,0.009981989,-0.06293869,-0.035954203,-0.033229113,-0.016642293,-0.034945574,0.009581245,-0.004670143,-0.000282528,0.00690788,-0.07371101,0.004004458,-0.00114917,0.017886562,0.041902643,0.014898082,0.033315375,0.03924356,0.020177921,-0.014174704,-0.03530901,-0.001355079,0.008681348,-0.05284786,0.01123665,0.011504263,0.001213507,-0.03982043,-0.008007399,-0.027618928,0.014465939,0.013711031,0.00085966,-0.014097892,0.017318346,0.021834752,-0.05879427,0.014988222,-0.010869869,-0.016787805,-0.004849747,-0.00260702,0.035675947,0.021022761,-0.010134184,0.012354212,0.007615835,-0.033467714,-0.019322729,-0.014824251,0.015181574,0.009789747,0.020292314,0.17336585,-0.01514379,0.006548013,0.01693621,-0.000683981,-0.015364859,0.037530836,0.002950774,-0.025546856,-0.053130075,-0.01782663,-0.031581353,-0.026214253,-0.025028346,0.005634731,-0.018564254,-0.015745113,0.024104476,0.004496283,-0.02860484,0.01374768,-0.039964765,0.03959862,-0.09321866,-0.005796599,0.14103203,-0.022491848,-0.016628021,-0.019007294,0.005685723,0.12394233,-0.037140362,0.002679596,0.073040865,-0.012509638,-0.04309952,-0.012530185,-0.004084918,0.009061021,0.04681762,-0.03599992,0.088337526,-0.016581975,0.028737037,-0.016947715,-0.007093364,-0.03844709,-0.041126583,-0.030571783,0.01331104,0.10100499,0.07622723,-0.04476957,0.049084462,0.007504418,0.023700317,-0.046565175,-0.002520385,0.10867258,0.034849834,0.15997943,-0.031434987,0.001781317,-0.015012473,-0.050257828,-0.026499595,-0.027307456,0.004031166,-0.024357816,-0.004071152,-0.010520538,0.004236026,-0.015570296,0.009405386,-0.012895077,-0.015990956,0.014666622,0.000254063,0.004177997,0.03474758,0.012556671,-0.046118017,0.010210249,-0.019418256,-6.70E-05,-0.001532347,0.01902932,-0.044682212,0.02647774,-0.008485995,0.01936018,-0.032465853,0.026483182,-0.021660954,0.038198758,-0.03909018,0.00390227,-0.007106654,-0.006113394,0.03338472,-0.002790395,-0.051395874,-0.008998061,0.03683026,0.16530254,-0.009211675,-0.012906523,0.03948044,-0.010969467,-0.014833401,-0.025420262,0.010642276,0.00962708,0.009451627,0.033454232,0.026164833,0.037190665,0.007118667,0.0728258,-0.040043134,0.016346537,-0.018539477,-0.032527864,0.011486656,0.072631046,-0.02419638,-0.02898221,-0.00189188,0.04611625,-0.047644787,-0.0497239,0.029483218,-0.019013314,0.023057127,-0.024052868,-0.035459977,-0.010447484,0.014895871,-0.02766652,-0.067095295,-0.004494596,0.012028123,0.027018014,0.002225125,-0.046105366,-0.013366258,-0.017800886,-0.036500547,-0.011946466,0.022800157,0.060768742,0.031325977,0.014856901,-0.018705947,-0.02200842,-0.020102143,0.015242152,-0.06418286,-0.075371586,0.007208692,-0.003208042,0.019524673,-0.029566782,0.038005993,-0.023860496,-0.057025347,-0.008456867,0.006073548,0.024249313,-0.044871483,-0.034195922,-0.0750058,-0.000982541,0.05384707,0.015843313,-0.007858305,0.009286478,0.03234483,0.017598696,-0.017231196,-0.018485555,-0.008416936,-0.003734218,0.000703022,0.011930728,-0.0474428,0.023985555,-0.03315651,-0.054297443,-0.009332752,0.13619006,-0.001849859,0.007228587,0.04841619,-0.021320269,0.016435964,-0.032238577,-0.001020214,0.027988655,0.018112846,-0.025394065,0.056696687,-0.06172232,0.021179877,0.035990484,-0.022561127,0.005111476,0.21826155,0.010285276,0.01729084,0.005982508,-0.02309667,0.000324375,0.003027924,-0.04044727,-0.044692867,-0.008392686,-0.008099096,0.002078773,0.007256385,-0.029775381,0.028413862,-0.022825526,-0.030858811,-0.04931009,0.05709467,-0.031822626,0.010399548,-0.002263102,-0.017617695,-0.012491051,0.000941516,-0.008818442,0.04368566,0.010823393,-0.042162333,0.044861507,-0.011645008,-0.023255425,0.0404924,-0.013190876,-0.007548826,0.03299158,0.010692896,-0.009031522,-0.040750083,-0.005136545,0.0161705,-0.003904814,0.004313969,-0.023542263,-0.012071918,-0.006634644,-0.008375317,0.031811982,-0.013786279,-0.013314449,0.0448665,0.001415766,0.07317261,-0.013573721,-0.060356855,-0.02075556,-0.01546219,-0.01703249,0.009887429,0.022765916,-0.038405295,0.011969677,0.005145525,-0.042850915,-0.022214096,-0.034758646,0.003629117,0.00842074,0.014193866,0.00488644,-0.007545866,0.01952437,-0.038802404,-0.013532847,-0.011888025,0.011951031,-0.015359437,-0.028108291,0.019627133,0.03905609,-0.010754252,0.008025226,0.09235223,-0.036263186,-0.004650133,-0.022484137,0.11635572,-0.00225914,0.022263337,0.000242883,-0.017173639,-0.09930512,-0.017825602,0.016637607,0.011826349,0.013807165,-0.01730925,0.01696397,-0.030095108,0.02084766,0.028212173,0.013290614,-0.046613365,0.0169234,-0.034881223,-0.017417561,-0.019969437,0.057834364,-0.043495975,-0.004883504,-0.001619964,0.020958005,-0.054590996,-0.016949348,-0.0219248,0.007198896,0.050459884,0.064827174,-0.006172342,-0.007937859,0.03480294,0.08002742,-0.03481353,-0.004785377,-0.006049923,0.05222715,-0.03981658,-0.039390914,-0.019150004,-0.039079793,-0.018384984,0.029285397,0.014074659,-0.030377148,-0.02908874,-0.041531213,0.043302655,0.01851196,-0.026361525,-0.03554342,0.007374432,-0.008680796,-0.017941566,0.029173354,-0.03285057,0.027821625,-0.049871996,-0.003835961,0.016480094,-0.028697902,0.026573062,-0.001089951,0.009596478,0.001393187,-0.044888478,-0.00029368,-0.010670884,0.023144342,0.02751511,-0.026767362,0.005995095,-0.041466873,0.008612902,0.04828933,0.018454472,0.022049181,-0.08066991,-0.015374787,0.004740981,-0.051706582,-0.032273144,-0.00267543,-0.07188629,-0.009820427,-0.014385733,-0.011991018,0.012991129,0.012702791,-0.034918245,0.003004518,-0.032592528,-0.01017498,0.066056825,-0.017148286,-0.030475695,-0.012966816,0.06353405,0.049864195,-0.002786088,-0.000987369,0.026929507,0.036724254,-0.010620515,-0.008765854,-0.02937182,0.022945661,0.000509853,-0.049741525,-0.011621598,0.03214059,0.065630704,0.014771021,-0.006460412,0.016002554,-0.007608953,0.016677635,0.05469496,0.018641546,0.003874583,0.012585201,-0.060767032,-0.03698034,0.006168734,0.045757346,-0.007524309,0.05149396,0.074086145,-0.04298954,-0.05332279,-0.017912263,0.013628054,0.020214176,-0.010787717,0.035060514,-0.025897479,0.016700853,-0.017942343,0.06801137,-0.005795721,0.04382907,-0.007781605,-0.01813476,-0.06129615,-0.010318678,0.006047865,0.001250376,0.009517403,0.006473003,-0.053459693,0.012648543,0.007268688,-0.006116168,-0.013453669,-0.04177368,0.001984323,0.001563047,-0.006606579,-0.001539676,0.03612498,-0.052142266,-0.005124763,-0.04715593,0.03013059,0.02873364,-0.041427698,-0.01644824,0.010836176,-0.069117635,0.032336853,-0.046527714,-0.001805447,-0.025961041,-0.05723708,-0.03921076,0.02431306,-0.04294714,-0.030691009,-0.04906514,-0.021325145,-0.004731853,-0.011019825,0.011568724,0.011584988,0.014303216,0.007020035,0.005983322,0.06032898,0.057297718,-0.037148852,0.04410397,0.007389935,-0.03978506,-0.010160578,0.006594766,-0.04213341,0.04273286,-0.023024619,0.05217484,-0.04262733,0.019079316,0.025578147,0.011241048,-0.023538861,0.012932699,-0.006967421,-0.0612518,0.021088906,0.037734408,-0.013953416,0.13813075,-0.011547065,-0.039742045,-0.06933694,-0.041639782,-0.001697291,0.001473656,-0.05771729,-0.010793751,-0.004042375,0.006584715,0.004381755,0.1020368,-0.00323099,-0.004123752,-0.01516384,0.008488225,-0.026241483,-0.012636677,-0.006314075,-0.022327794,-0.03874548,-0.008101289,-0.039705854,0.034495458,-0.028768988,-0.003380124,0.007024868,0.010637797,0.055672154,-0.00102058,-0.016297136,0.006846765,-0.007434066,-0.044067584,0.02113338,0.02267361,0.13036962,0.035231132,-0.012150941,-0.039414585,0.017629243,-0.020585291,0.036867145,-0.004252768,-0.030415537,-0.011370068,0.033832528,0.000598045,0.018967487,-0.024736654,0.042105567,-0.018357068,0.12230446,0.09671424,-0.032904647,-0.05659237,0.01563474,0.016424991,-0.014344005,0.016247256,0.055921707,-0.008438019,-0.06977616,-0.019041408,-0.026111767,-1.97E-05,-0.05149788,0.010951226,0.000167624,0.003170504,-0.026153227,-0.011804223,-0.023598047,-0.013969478,0.023021407,-0.019162828,-0.02448711,-0.006833298,0.0495143,-0.014046219,-0.001689339,-0.029766697,-0.017273927,0.02227936,0.033856954,0.04677689,0.02740003,-0.06508909,-0.011507005,-0.005198879,0.001145186,0.018167034,-0.009152158,-0.024659328,-0.017699536,-0.004295689,0.014670761,0.06582409,-0.005372355,-0.03569506,-0.020729693,0.02525882,0.019133158,0.037373107,-0.02599569,-0.025806235,-0.004771595,0.03598157,-0.004204346,-0.03987431,0.001251845,-0.020819044,0.026563026,-0.05125271,-0.021297675,-0.00060748,-0.015296074,-0.023711171,-0.028651522,0.027705384,-0.025753448,0.002237465,0.1489463,0.004897515,0.019789852,0.03343634,-0.035701193,0.03399225,-0.039880697,-0.012271252,-0.047333088,0.005383311,0.19951214,0.02909245,-0.020192062,-0.008741071,0.019170556,-0.02768359,0.00607586,0.050647207,0.001423996,0.012749225,-0.01608658,-0.032661892,-0.005337946,-0.057482686,0.08500449,-0.06915196,0.06840149,-0.014653565,0.009901613,0.03729594,0.021211002,-0.007837125,0.014240433,0.030451804,-0.010275389,0.015159274,-0.05046341,0.006662597,-0.021777963,-0.008172014,-0.003334262,0.032623656,0.020085627,0.01540815,0.018194107,0.030951897,-0.041819915,0.03144066,-0.011724234,-0.01243738,0.3053988
SrIrO3,-0.000598317,0.010328088,-0.06542703,-0.017641399,0.010524885,-0.024721649,-0.005849912,-0.029397197,-0.024354115,0.011424929,-0.020654531,-0.019376643,-0.03564558,0.019884346,0.010194399,-0.00320162,-0.030967185,-0.01478458,0.002730868,-0.034901306,0.18403001,-0.017260756,0.009005059,0.003423334,-0.031274583,0.020410988,0.020875249,-0.00981205,0.056297027,-0.00476787,0.033442035,0.008800357,0.060460173,-0.02935848,-0.012977441,-0.014003624,0.00389323,-0.03506456,-0.008309909,-0.0167673,-0.011282435,-0.086118266,-0.01669077,0.017691975,0.008853496,-0.005467449,-0.05605115,-0.02374301,-0.050704937,-0.016774707,0.027817607,-0.061473735,0.050425343,-0.017584486,-0.023496514,0.0411969,-0.021015229,-0.007533352,0.017709581,-0.024148908,-0.044939727,-0.013251009,-0.029248582,-0.028969338,-0.002356072,-0.029972345,0.003770915,-0.049246114,0.014184732,-0.010175332,0.03650132,-0.033350937,-0.035217144,-0.018830806,0.014325243,-0.03640355,0.03887517,-0.028626217,-0.011306092,0.006161463,-0.004921325,0.010406883,0.024732409,0.033018306,-0.03180861,-0.033543833,-0.021868596,-0.060781326,-0.020005431,0.14956255,-0.028220886,0.007084633,-0.021844426,0.01940231,0.042510528,0.017873606,-0.037541777,-0.004534332,-0.037122536,0.028388483,0.013837442,0.0313695,0.000696445,0.019071676,-0.03624748,-0.00210133,0.01888031,0.035972588,-0.04731402,-0.010932445,-0.02140279,-0.002542536,-0.02153012,-0.051978607,0.049528487,-0.07147998,-0.050371833,-0.019477746,0.03586929,0.14947951,-0.05806312,0.01790355,0.02134328,0.026726251,-0.035749365,0.003264791,-0.01260192,-0.030285269,-0.015464116,-0.014800884,0.12076642,0.008294573,0.028955877,-0.02424767,-0.048688587,-0.018177496,0.03678616,-0.004830483,-0.023390874,0.10533184,0.075275645,-0.009277726,-0.02789511,0.00569189,-0.012096664,0.02362922,0.02777074,0.051441234,-0.007120546,0.1370411,-0.013400666,-0.014673049,-0.022958623,-0.03571648,0.01736482,0.017052354,0.026715556,-0.028261125,-0.03329105,0.017981302,0.006661407,-0.019759625,0.031935137,0.001210779,0.061685383,0.047795773,-0.029161667,-0.02936799,-0.027668433,0.018602718,-0.000285432,0.03519036,-0.019949416,0.00196305,-0.02208026,-0.059313238,-0.02057178,0.018390732,-0.027351698,0.035278793,-0.06672218,0.018248932,-0.051967327,-0.06740246,0.02281214,0.015622584,0.005925863,-0.0316675,-0.029027749,0.020330127,-0.024007564,-0.032781534,0.02243996,0.15211405,0.005134405,0.004137224,0.021861015,-0.009091684,-0.006283357,0.024224343,0.02029846,0.008534099,-0.01012099,-0.012576088,-0.001853489,0.040964894,-0.016482322,-0.033921435,0.022176344,-0.050635435,-0.012437166,0.038773965,-0.040668026,0.016196476,-0.019648887,-0.033696644,0.004171887,0.036083944,0.007373756,-0.041381344,0.016247556,0.014332117,0.02164988,-0.04701049,0.03548046,-0.011248017,0.046561413,0.031460747,-0.03556014,-0.045177232,0.021594662,-0.021515237,-0.025479253,-0.04312198,-0.028385302,-0.03248755,-0.046025023,-0.04775889,-0.011059297,0.005279629,0.006590005,0.003525201,-0.012715243,-0.03156729,-0.014200785,-0.028210267,-0.05693354,-0.057139087,0.021539548,-0.018391026,-0.023796597,-0.04275646,0.04270816,0.04023316,-0.0295702,-0.064169206,0.012753026,-0.003288036,-0.021897456,-0.02840551,-0.001664467,0.003120311,-0.000765611,-0.021109521,0.019727373,0.007315347,-0.004201412,0.025825478,0.017237924,-0.06736478,0.020853324,-0.007234983,-0.019722376,0.01826358,-0.058411967,0.029351858,-0.042911228,-0.006105787,0.017516106,0.11762444,-0.001301409,-0.059550777,-0.002557913,0.008545406,0.014036384,0.03724323,-0.007759123,-0.012297321,0.051701054,0.03467983,0.12141829,-0.046905473,-0.00399992,0.014662319,-0.03780378,-0.006160043,0.17533137,0.021765225,-0.002904699,0.005780839,-0.062294085,0.031505648,-0.025735836,-0.004705781,0.018961288,-0.02178145,-0.017866272,-0.021153126,0.021703118,0.012124114,-0.017581282,0.018324325,-0.020465694,0.017181575,0.07965138,-0.029541317,-0.037332237,-0.055760223,-0.003180317,-0.04231398,-0.041748207,-0.05117364,-0.010022866,-0.001493717,0.05160666,0.001400871,-0.003709582,0.00595233,0.011859377,-0.008292856,-0.018348506,-0.001671103,0.017246587,0.017048242,-0.027411195,0.0345924,0.015097496,-0.009594639,-0.002406176,-0.003239083,-0.022049239,0.023523625,-0.030848924,-0.03153146,-0.018529892,0.002716797,0.017221233,-0.037263073,0.06401051,-0.02592074,-0.04673858,-0.011436967,-0.015756615,-0.003525877,0.01845726,-0.017473225,-0.04302619,0.007692485,-0.055125587,-0.013700156,0.042095825,-0.010004007,-0.012176149,-0.025799334,-7.04E-05,-0.014308905,-0.017959023,-0.007378372,-0.049906734,0.00393871,0.000721928,0.019350672,0.044445116,-0.037025716,0.038235374,0.071514405,-0.029494923,-0.020349292,0.05021117,-0.04815814,0.001004673,-0.041975707,0.031040099,-0.002460906,0.005183002,-0.07761839,0.021425446,0.001974707,0.024121102,-0.05426487,-0.000962399,0.022260848,0.015661005,0.04487864,-0.023272725,-0.014397764,-0.004830372,-0.008515917,-0.049217775,0.011582968,0.03059227,-0.012779854,0.004223205,0.04886219,0.027237397,-0.02159661,-0.022797918,0.024421604,-0.03346724,-0.07402573,-0.02215565,0.044882458,0.06574505,-0.020160718,-0.02931833,0.022534112,-0.024745574,0.012563098,-0.032921564,0.009622602,0.013043488,0.0457584,-0.08141556,-0.039849658,0.021095539,0.019226646,0.02770414,-0.019571824,-0.001780932,-0.02855801,-0.063054465,-0.010481354,0.006997685,0.015035802,0.002296004,-0.01136624,-0.00816215,0.02213325,0.005846181,-0.046726666,-0.024697471,-0.026237294,-0.021725364,-0.008948752,0.0260547,0.005673918,-0.04910668,-0.042762138,-0.003960877,-0.017416103,-0.012343568,0.06922348,-0.010780169,-0.018463388,-0.063928515,0.035913557,-0.01636401,-0.05391964,-0.019154752,0.03631058,-0.037916243,-0.03550622,0.03015752,0.000243201,0.002884428,-0.000907079,0.010468802,0.001949576,-0.00249375,-0.038696095,-0.01839207,0.017684918,-0.000898017,-0.01616368,-0.008440565,-0.030692318,0.007178777,0.0080791,0.009544106,-0.003527754,-0.000865424,-0.037522264,-0.02217522,-0.008702883,0.033228684,-0.02864523,-0.049015958,0.06116362,0.002722784,-0.019775512,-0.004012648,0.007102418,0.034054667,-0.010334097,-1.94E-05,0.00758038,0.011089168,-0.030995838,-0.040336765,0.0034097,-0.004789752,0.027783193,0.008500258,-0.031669002,0.00328314,-0.012198245,-0.016215531,-0.043163046,0.006943691,0.008239867,0.002781997,0.04362113,0.030918095,0.015453603,0.06203516,0.009670824,0.03934688,0.025644762,0.003046789,0.03490657,0.021432417,0.005780035,-0.034735214,0.07015345,0.024245145,0.040019333,-0.007366522,-0.025566256,-0.06662597,-0.020656772,-0.04762322,-0.07024902,0.041539293,0.004804408,0.023224002,0.044137068,-0.02542282,-0.06287891,-0.014610319,-0.023450872,-0.000235355,-0.028713945,0.050904684,0.02953068,-0.0232453,-0.05624234,0.04837303,0.025431698,-0.01486163,0.007204747,-0.041610066,-0.012366279,-0.004898694,-0.056248993,-0.00055643,-0.011897828,-0.018141685,-0.021025868,0.047115307,-0.01594194,0.027124925,0.0125196,0.014070631,-0.020893063,0.004577427,-0.0221866,-0.01923271,0.03210235,0.027293338,-0.038438518,0.008095274,0.017032988,0.000137159,-0.017534634,-0.015817916,-0.02609775,0.016322348,-0.03237716,-0.036643837,-0.002076987,-0.043810837,0.02948775,-0.01187616,0.08962537,0.024460282,0.037636314,-0.008863569,-0.05464644,-0.06741655,-0.019393895,0.005127822,-0.006431918,0.022360234,0.057173263,-0.021158483,0.19483677,-0.001587033,-0.041683283,-0.08190895,-0.034129743,0.044445496,0.044516865,0.00885739,0.018853901,0.014651841,0.011803473,-0.020265603,0.050303105,-0.014374781,-0.039999925,-0.029439507,-0.014571125,-0.050081518,0.02623165,-0.013445222,0.01383689,-0.004371524,-0.002759956,0.046033967,-0.044315092,0.011306469,-0.020239763,-0.01204704,0.024248037,0.015477437,-0.012899748,-0.05136491,-0.002414096,0.040007465,-0.048590846,0.03835622,-0.046335146,0.03819446,0.025680577,-0.018182604,-0.038758952,0.012622446,-0.01731349,0.029431796,-0.025083134,-0.016449098,0.05094459,0.012003934,-0.037004955,0.008440148,0.025193369,0.03561917,0.020803845,0.060859542,-0.006925417,-0.000430597,-0.045696955,0.019453729,0.030371672,-0.011598963,-0.03522248,-0.016236408,0.005127658,-0.043156177,0.03332369,-0.06849789,-0.058865707,0.03877301,-0.001592013,0.001062587,-0.06378554,-0.01717905,-0.024507925,0.019814637,-0.012084406,-0.006304079,-0.03314313,0.021321796,-0.016820952,0.050587535,-0.037346315,0.015150561,0.022873988,0.015010852,-0.003469025,0.009880806,0.014125499,0.03552007,-0.0565141,0.019148018,0.002634499,-0.03682372,-0.019914329,0.01888325,-0.028205227,-0.02132889,0.019805593,-0.053754527,-0.002934454,-0.02639996,-0.06815154,-0.023646798,-0.044719808,-0.03713433,0.03361601,0.012783818,-0.021204313,0.004389622,-0.030623429,0.01626259,0.014315004,-0.007568743,-0.009296046,0.042653594,-0.04127112,-0.040048007,-0.05993129,-0.002910905,-0.06691335,0.003353416,-0.02549377,0.042671833,0.07140736,0.12461847,-0.032678552,0.06464707,0.028198892,0.007199838,-0.002150865,0.0331129,0.003083189,0.007560745,-0.048828337,0.21441889,0.01692204,-0.008681178,-0.03763383,-0.010006188,-0.008435925,0.022741964,-0.017088963,-0.028534386,0.020677982,0.025464728,-0.023549438,-0.005618657,0.048025046,0.016596869,-0.038663108,0.002162715,-0.005205309,-0.003441385,-0.028026558,0.010005267,0.02369436,-0.007835047,-0.03668998,-0.030432781,-0.007733605,0.027064716,-0.009323576,-0.027802836,0.035971828,-0.031626694,0.020925278,-0.002250056,-0.008134044,-0.038037002,-0.005965575,-0.038829304,-0.05668445,-0.034472037,-0.031062856,0.30499548
YbFeO3,0.02356272,-0.023258591,-0.06049044,-0.033392362,0.023210201,0.005085957,-0.029095745,-0.029953199,0.006072505,-0.035842367,0.01854663,-0.03761979,0.013948505,-0.008140571,0.023876993,-0.03967546,-0.006367372,-0.02112911,0.048282158,0.02841806,0.17884988,-0.033349358,0.023922615,-0.066044964,-0.04387799,0.051634986,-0.017545225,-0.011739503,-0.029885324,0.014232908,0.002146536,-0.002103568,0.11341612,-0.013612923,0.014869939,0.001340107,-0.053873442,-0.003584428,-0.050841324,0.006205801,0.019186696,-0.07707181,-0.031478856,-0.005335031,0.013251499,0.014474101,-0.02542521,0.006398489,-0.025538057,-0.003602845,-0.01044708,-0.045623206,-0.017397122,-0.003352454,-0.005010561,-0.015934473,-0.020806001,0.004013436,0.015017012,0.03250388,-0.008611059,-0.02269692,-0.034183666,-0.051151022,0.021833539,-0.039754547,-0.005753844,-0.086126655,-0.023370605,0.003731334,0.000174207,-0.011352279,0.003691132,0.03363938,0.007977014,0.03720343,-0.00666684,0.004916771,-0.042496312,-0.006587493,-0.06375655,-0.058056038,-0.002084027,0.054171875,0.022791574,0.005937246,0.008500419,-0.05373658,0.01326375,0.14995082,-0.03416975,0.034923315,-0.05600967,0.049002048,-0.005374928,0.045259118,-0.00179874,0.010300897,-0.061053462,0.04689867,0.036247753,-0.029313276,-0.053107798,-0.00920007,-0.05123516,-0.012785886,0.001774157,0.03249353,0.0226324,0.023776973,-0.04110866,0.025445804,-0.036985047,-0.000445141,0.06855897,0.002371388,-0.006257574,-0.04105101,-0.03840701,0.10875811,-0.10179788,-0.028023915,-0.004315726,-0.04951491,0.013814365,-0.026020814,-0.03822671,0.009553762,-0.022651881,0.029917512,0.11262209,0.015390321,0.001133034,-0.025096893,-0.009500639,0.019575905,-0.005352853,-0.008589369,-0.006628943,0.14405511,0.060692586,0.010588333,-0.036811613,-0.005968733,-0.01756612,0.005507601,-0.012135433,0.051532544,0.038234856,0.1275181,-0.019568752,-0.047939073,-0.017962169,0.023948917,-0.003436011,-0.02103982,0.026934763,0.03634038,0.019786738,0.003147642,-0.013393706,-0.010829936,-0.060158443,-0.03003745,0.007577997,-0.016593311,0.028316705,-0.042264584,-0.012732605,-0.020994077,0.023956193,0.000762164,-0.041105546,-0.006141559,0.03622965,-0.04912932,-0.025146423,0.021584822,-0.12820983,-0.002383788,0.02461314,-0.03074946,0.015887845,-0.018352406,0.007695035,0.00064145,0.006318096,0.011718133,-0.018578362,-0.020569144,0.033718422,-0.04294044,-0.017356705,0.1269072,0.020679165,0.037177525,0.005752445,-0.008083147,-0.050618295,-0.000575356,-0.012193324,0.009296902,0.012158297,-0.0116009,0.023804836,0.01184932,-0.001814601,-0.005670474,-0.03389619,-0.003922223,0.020280177,-0.01469351,-0.009412681,-0.003363015,-0.012849324,0.055875946,-0.009002745,0.015930353,-0.002576944,-0.046212208,-0.024761733,-0.037278134,-0.021520333,-0.04474429,-0.027068201,-0.005448604,0.013802039,0.00015454,-0.0517207,0.028756069,0.02547941,-0.015438465,-0.058911454,-0.04773453,-0.025942601,0.00363896,-0.035031505,-0.017856704,0.006749895,0.0042522,-0.048386525,-0.007426843,0.020387843,-0.009682661,-0.011655495,-0.040767815,-0.028079085,-0.002309916,-0.005338785,-0.031250436,-0.005164874,-0.011264999,0.02685759,-0.009281704,-0.009119083,-0.06771768,-0.008740637,0.000773823,0.03315044,-0.012433144,-0.014842509,0.049696583,0.014775625,-0.029953979,-0.005400106,-0.003572067,0.004195922,-0.005000087,0.03779638,-0.032540448,0.038003784,-0.017825847,-0.028086992,0.01765616,-0.015251279,0.06233637,0.014592879,0.005785476,-0.01744787,0.088880435,-0.003163768,0.022272032,0.03839571,-0.008770543,-0.018987695,0.003051067,-0.015895382,-0.004135917,0.029000571,-0.03393589,0.016606232,-0.034076836,-0.06237945,0.03300241,-0.046300054,-0.028337,0.14473146,0.077191725,-0.007942113,-0.04198284,0.024954611,-0.04130383,0.000236796,-0.02817888,-0.03020044,-0.017552499,-0.03371192,-0.017141167,-0.023929665,-0.06047934,0.032890413,0.01498952,-0.0340819,-0.048952017,0.07115671,0.005773684,-0.021135742,0.038490992,0.04835739,-0.027462205,-0.020170283,-0.027173195,0.004817823,-0.026113212,0.007166166,0.063757665,-0.030282449,0.008329278,0.02032045,-0.017369833,0.011667104,0.003409615,0.007586674,0.001263399,-0.08523948,-0.019531539,0.014381332,-0.031697575,-0.039956342,-0.035121102,-0.0185399,0.027255105,0.006750713,-0.010905125,0.013886991,-0.014474178,-0.01598985,-0.013652548,0.06708691,-0.041104604,-0.003157981,-0.044742525,-0.002098539,-0.014610228,0.052291986,0.012899269,-0.06645398,0.006121063,-0.001681229,0.013646063,-0.024045326,-0.028823815,-0.0195847,0.021823894,-0.041174717,0.0100034,-0.01108346,-0.01845997,0.004688993,-0.03536641,-0.011518681,0.014150494,0.023244347,-0.011760871,0.096874505,0.05072198,-0.035900544,-0.002595851,0.04091901,-0.00303337,0.014199475,0.012849769,0.087091625,0.001184001,-0.024157971,-0.030767841,-0.008367235,-0.05359617,0.03497577,-0.053850412,-0.022348942,-0.046879932,0.040611263,-0.03605372,-0.016127896,-0.008357422,-0.014977269,-0.055978756,-0.047742534,-0.023318507,0.002781502,-0.005484539,0.038375236,0.012836447,0.008779257,-0.045484293,-0.02215135,-0.00503072,-0.012398904,-0.046092767,-0.025510713,-0.007288479,0.010183974,0.000950589,-0.001454921,0.014443035,-0.006468329,-0.03403704,-0.035117626,0.0053068,0.039584164,0.058630973,-0.01722344,-0.022239394,-0.013857936,-0.028053418,0.025737511,0.041139133,0.005936282,0.001922643,0.000100194,0.004363944,0.10004688,-0.026396018,-0.006761163,-0.03648395,-0.0321704,-0.050928913,0.045473192,-0.006514004,0.022237346,-0.019962246,-0.007215751,-0.07243503,-0.027034657,-0.04135467,-0.046686806,0.01440689,-0.002728723,-0.031229049,-0.004781133,-0.038005453,0.0066429,-0.001878985,-0.004627518,-0.018974038,0.010701884,-0.003590127,0.001284199,0.030018048,-0.019578824,0.004458669,-0.025509816,0.038700495,0.00160382,-0.050719466,-0.00447639,-0.049788807,-0.04458573,-0.032269135,0.012910144,0.023053812,-0.059995938,0.045532353,-0.023266032,0.012219556,0.037325513,-0.021833997,0.016470961,-0.014073282,0.012377988,0.007956099,0.002210866,0.011859409,-0.024506353,0.017212499,0.054766376,0.081842504,-0.030285552,-0.003099911,-0.023762144,0.039449092,-0.055285763,-0.007283359,0.017306145,0.05845358,0.062297266,-0.03070197,0.006119616,0.030976111,0.041672654,0.032065667,-0.001613897,-0.025957447,0.049484007,0.001641729,-0.037338957,0.015979256,-0.03842358,-0.02419481,-0.025255315,0.026803596,-0.004771452,-0.037481427,0.05684811,0.004945138,0.012706443,-0.0315722,-0.010327291,0.007342292,-0.021210523,0.02096937,-0.015056317,-0.018596401,-0.0428514,-0.004337797,-0.03187127,0.025962332,-0.050887767,0.037800733,-0.019480659,-0.056133647,0.009884322,-0.000531989,0.02279718,0.03690515,0.007079014,-0.005613197,-0.001320854,-0.04440003,0.03666379,-0.004404042,0.04789321,0.044732165,-0.07692,0.03339871,-0.029341547,0.011743332,-0.009273892,-0.018550288,0.014022389,-0.00339318,-0.007842335,-0.031457357,0.035454262,0.011985672,-0.025260594,-0.022033714,-0.008011108,0.002940383,0.020103194,-0.015384665,-0.005921032,0.026186336,-0.042501163,-0.03733339,0.033976536,0.030557634,-0.003302983,0.005022033,-0.018545572,-0.003962987,0.004061364,-0.040980447,-0.026674114,0.00115024,-0.017879423,0.022308445,0.016918616,-0.03322697,0.004897357,0.0001894,0.00536529,0.0418776,-0.001930786,-0.012843858,0.01970569,-0.051120847,-0.013457535,-0.049763694,0.001993425,-0.05087068,-0.018462915,0.03240622,0.04130422,0.13269955,-0.024431529,-0.020120824,0.032172367,0.016622225,0.00268178,-0.02746341,-0.06039367,0.016957367,0.009769492,-0.027503353,-0.05020613,0.09339676,0.004219507,-0.034149658,-0.032388303,-0.022416897,-1.00E-04,-0.044002097,0.014718899,-0.04295321,-0.022459196,0.02759575,-0.015322191,-0.016858676,-0.013922613,0.0213185,0.014132365,-0.014561954,0.014157144,-0.017006522,-0.009370043,-0.009949968,-0.004241991,0.026595669,0.053268343,-0.046563383,0.06192904,-0.02517129,0.006038574,-0.016634133,0.004141915,0.042566493,0.009189598,0.010284575,0.05817023,0.040883355,-0.03672711,-0.002098736,-0.05667525,-0.018362578,0.05653086,-0.007312017,0.07986601,0.059898924,-0.04703587,0.011524133,-0.036311388,0.057927042,-0.020445764,0.027545232,-0.008102708,-0.07578833,0.006864043,-0.055877343,-0.03636349,0.001125737,0.007496103,-0.016483417,-0.032391828,0.024639592,-0.042643223,0.024262331,-0.021155056,-0.001224415,-0.024392761,-0.016132843,0.018312046,-0.03154913,0.003209343,-0.089043036,0.036458533,0.023931565,-0.005794032,0.0166733,0.005789436,-0.018277992,0.04390654,0.022408394,-0.00013537,0.04600515,-0.04003538,0.005885219,-0.027301459,-0.023439772,0.022196474,0.007427059,-0.019437114,0.02812841,-0.028915761,-0.010201631,-0.048424847,0.015219196,0.03244679,0.003390293,0.017373966,0.006007071,0.028071962,-0.026068721,-0.006394572,-0.030593,-0.015748482,0.019863611,0.036238432,-0.013927624,-0.04328819,-0.033718422,-0.009133167,-0.047713786,-0.001356534,-0.001996577,-0.057214968,-0.02349199,0.03468877,-0.032014877,0.009588983,0.00719237,0.013564748,-0.026248021,-0.03303469,-0.028182503,-0.033879347,0.022072444,0.19249621,0.000961771,-0.008898314,-0.05234358,-0.004950377,-0.036749803,-0.026057104,-0.00702546,-0.012063994,0.028115125,0.026341518,-0.043617077,-0.03366789,0.031710796,0.08634675,0.004075357,0.018138738,-0.015383385,0.014768382,-0.028397791,0.010189941,-0.0343059,0.019431258,0.020857476,-0.012403624,-0.005656809,0.004894656,0.012469692,-0.08604047,-0.011926157,-0.022624023,0.02617832,-0.001973754,-0.002258997,-0.016259935,0.000774414,-0.001570409,0.061782457,-0.016125498,0.015971048,0.30088505
LiVO3,-0.024741774,0.04812432,-0.0831225,0.019566502,0.016761506,-0.017107116,0.005045541,-0.016334368,0.017767575,-0.017501816,-0.006601439,-0.016824074,0.040834513,-0.017557418,-0.024089728,0.000446099,-0.026237339,0.026090162,-0.01458439,0.020090695,0.18484065,0.031528655,-0.003551534,-0.035003103,-0.0405305,-0.002228943,-0.030749582,-0.024412308,-0.034901235,0.022622144,-0.004118374,-0.013193842,0.13566361,-0.008992868,-0.01373768,0.018143313,-0.000458421,-0.011107611,0.012266428,-0.013435466,-0.004539138,-0.01050174,0.008392386,0.024197267,-0.015695212,-0.035693027,-0.01357287,0.023483653,-0.01076689,0.008007617,0.012693971,0.044315893,-0.000666202,0.025131775,-0.026458044,-0.082136855,0.002747207,-0.013722182,0.022257391,-0.049924392,-0.017071012,-0.014431102,-0.04189656,-0.017697804,-0.010732913,0.01734616,-0.045622077,-0.027975496,0.014810829,0.01011068,-0.03366157,-0.03018132,-0.032215208,0.02300004,-0.035070162,-0.026355827,0.0593422,-0.021615595,0.008192545,-0.022872001,0.028228538,-0.007971372,-0.03764691,0.00356625,-0.03292264,0.003239245,-0.010019068,-0.008735755,0.017759675,0.18671608,0.026757395,0.03873412,-0.054250225,-0.050899293,0.010535154,-0.01533964,-0.021412717,-0.037046343,-0.001023286,0.052034453,-0.031059433,0.015060267,-0.04762322,0.03713294,-0.034617707,-0.032038875,0.04283643,0.001389173,0.01297235,-0.001907971,-0.02772566,0.017813876,0.004441075,-0.04628645,0.11933978,-0.043666493,-0.001279113,-0.01805108,0.022825908,0.15221597,-0.07268254,-0.00533388,0.02393605,0.006388225,0.10178542,0.040846232,0.017942876,-0.002478943,0.023699889,-0.00821155,0.108541764,0.039137054,0.029771896,0.02294995,-0.050046947,0.027011124,-0.000977955,-0.03767662,-0.016042141,0.040031325,0.089255765,-0.073245116,-0.019621707,-0.007841604,-0.009133205,-0.028141556,-0.02254128,0.105686076,0.04421792,0.11787569,-0.03215677,-0.027220262,0.015471733,-0.03626746,0.061765287,-0.024423117,-0.016010107,-0.032981094,0.012707233,0.043209843,-0.051208224,-0.028692365,0.04965864,-0.033910774,0.0334894,-0.009058771,0.014983933,-0.032847155,0.008744397,0.038199935,-0.019553218,-0.004207347,0.001458217,0.012389786,-0.03576957,-0.02269477,0.033422638,0.022971896,-0.03480764,0.04303504,-0.028832791,-0.009556209,-0.078487284,-0.022194032,0.021678999,0.018974917,0.038329624,0.03193123,0.042954776,0.019732252,-0.059102595,0.007194312,-0.02464636,0.16043517,-0.07070617,0.032966774,-0.037047014,-0.02077347,-3.89E-05,0.00469819,0.00953556,0.018001832,-0.016991427,0.009647454,0.01949161,0.023660893,0.002177861,0.021513166,-0.03552743,-0.016635185,-0.00851579,-0.027790759,-0.04102659,0.0254938,-0.064813904,0.009272464,-0.074103355,0.020642038,0.011384275,-0.007857259,-0.03525272,0.032598536,0.001232601,-0.022083938,-0.036836028,0.024213834,0.000374662,-0.020328267,-0.03627209,0.023964345,-0.000837404,0.017584374,-0.006347626,-0.007490342,-0.007826009,0.030233394,-0.003217547,0.048701737,0.028651878,-0.017418308,-0.013858469,0.024984628,0.033112254,-0.01119797,-0.02110414,0.03436163,-0.05280995,-0.004287203,0.005418557,0.024185669,-0.018263226,-0.042239424,0.060334887,-0.036397226,-0.02194281,-0.015624993,-0.016098797,0.013906057,-0.067912385,-0.012577084,-0.026808012,0.001734831,0.007039832,-0.0734166,0.00222257,0.01599805,0.004809194,-0.002250487,-4.94E-06,0.051659882,0.041097686,-0.041571304,-0.039343234,-0.040159523,-0.054503124,-0.050130423,0.024921969,-0.005570672,-0.004796189,0.11325596,0.015910944,-0.013056976,-0.003599267,-0.058813423,0.008272717,-0.011988807,-0.006017115,0.014566,0.033910573,0.021757232,0.086266324,0.006723195,-0.018370291,0.003380664,0.012851394,0.013411611,0.19951825,-0.034308027,0.037763122,-0.01206144,0.037003666,0.010522448,-0.030112578,-0.017397901,0.015679436,0.009493106,0.030925037,-0.025168749,-0.01417712,0.004180675,0.006095187,-0.030304285,0.017535493,-0.004516609,0.07008161,0.019783355,-0.011872421,-0.004644393,-0.02952499,-0.033512637,-0.027690707,0.06605908,-0.031423025,-0.022348927,-0.006387807,0.015420005,-0.014901949,-0.014628573,-0.002215017,0.05004258,-0.02135883,0.019808747,0.011568087,-0.01693897,-0.010289084,0.002383188,0.07523234,-0.043314837,0.004001179,0.02491737,0.014320694,0.05367136,-0.004417189,-0.003410263,0.003367626,-0.004979663,-0.018671593,-0.026289893,0.07745732,0.021453533,-0.003077148,0.02234824,-0.001197133,0.002751564,-0.018670822,0.002198709,-0.00177281,-0.023270154,0.010337507,0.007627585,0.048671477,-0.064402714,-0.02706932,-0.01007147,-0.010107407,0.005755389,-0.011437108,-0.011345916,0.043656733,0.006787154,-0.012979149,-0.025196232,-0.007807174,-0.012748614,0.08924233,0.05439311,-0.00556651,-0.03070024,0.015524367,-0.01370286,0.001401708,-0.050539568,0.10890043,0.006223534,0.01756158,0.037072916,-0.01984035,-0.041251674,-0.016744804,0.010095824,0.04619005,-0.014015289,0.002730587,0.051398776,0.006327638,-0.028693339,-0.017584393,-0.018627677,-0.030863304,-0.022617463,0.01581551,-0.018354556,-0.009535592,0.004629678,0.040747065,0.00889281,-0.006360176,-0.073283896,-0.019727493,-0.034903962,-0.047314897,0.009846294,-0.015763704,0.010147302,-0.050695594,-0.009254023,-0.010699452,0.058827322,-0.002469586,-0.057497144,0.03829929,0.0808831,0.002175147,-0.042523187,-0.03317246,-0.005738755,0.013893059,-0.057628315,0.005759316,0.023505693,0.008223295,-0.003635956,0.03825298,0.002580545,-0.014730333,0.020958884,0.03723983,0.008096228,-0.023233796,0.03246056,0.004403675,0.007488008,-0.002979271,-0.005757965,0.01322653,-0.0323043,-0.019705223,-0.045125317,-0.08063692,-0.042222064,-0.007189891,-0.023194218,0.000101172,0.002653452,-0.06058115,0.026898284,0.001313631,0.014323149,0.048484106,0.032155555,0.012064268,-0.020278791,-0.016244216,0.010598072,-0.048614673,0.031058755,0.00226325,0.005958158,-0.038290396,-0.01155048,0.0397501,0.026353316,0.03627111,-0.005120339,0.04953677,-0.00866757,-0.02733681,-0.011132631,-0.013422966,0.02529609,-0.012028564,-0.020111678,-0.021543643,0.014427286,-0.009565326,0.040541794,-0.033332285,-0.030888285,0.018297622,0.005778989,0.04340992,-0.03756275,-0.02221608,-0.02745845,-0.009194884,-6.14E-05,0.032891035,0.039003935,-0.05105054,-0.02851741,-0.021987613,0.038534466,0.06288806,-0.00465396,0.034795936,-0.02871765,-0.008623186,0.024643147,-0.010502123,0.003216057,-0.002390928,-0.02858194,0.04666308,-0.04730096,-0.000441897,-0.013862788,0.005284476,-0.03803725,-0.022814836,-0.00269913,0.000730578,0.033610974,-0.021709135,-0.016091356,0.019909516,-0.029974086,-0.064349376,0.033515815,-0.010851648,-0.002758403,-0.011737276,0.012284795,-0.024103561,0.03812589,0.009786597,-0.01884484,-0.04288264,-0.033668492,-0.01950653,-0.033708483,-0.028190434,-0.05694916,0.010976746,0.01819916,4.14E-05,-0.030123392,6.12E-05,0.002029773,-0.010519342,-0.011056523,-0.016814144,0.009719738,-0.020162955,-0.045058817,0.035400208,-0.003518785,0.029352365,-0.009310189,0.011254069,-0.006206382,-0.001788704,-0.025737997,-0.047417697,0.003576107,-0.026011331,0.037460327,0.017598994,0.033603106,-0.00356225,-0.04597071,-0.001587786,0.01637266,0.010629465,-0.006786757,0.020319778,0.043948285,0.039622933,-0.04243073,0.009506818,0.030918254,-0.01175172,-0.025011173,0.000559284,0.07319126,-0.007258313,-0.005131628,-0.006409816,0.014909143,-0.021356173,-0.007113593,-0.007489754,-0.08808404,0.012145442,0.062455565,-0.036392856,0.2703599,-0.062817395,0.002276468,-0.03849497,-0.001941463,0.03863084,-0.035112243,-0.031309623,0.021050898,-0.015912633,0.000156763,0.001624173,0.08508426,-0.03177932,0.001565094,0.023006072,-0.02326899,0.048401307,-0.007969886,0.047217138,0.000750161,0.021138353,0.003778006,-0.01534036,0.02470328,0.037134748,-0.013533402,-0.018228067,0.016525796,0.0827826,-0.008980697,-0.022605382,0.030668858,-0.002917107,-0.010739655,0.073457696,-0.001271524,0.09227297,0.01650966,-0.058073767,-0.03617664,-0.009813672,0.01898115,-0.061010387,0.013543468,-0.015744526,0.027889075,0.02986855,0.010864846,0.018084334,-0.04068514,0.032665227,0.00638972,0.07276818,0.04915383,-0.015426,-0.039908107,0.040445898,0.041061938,0.026409095,0.041808717,-0.05017106,-0.018647239,-0.007547354,-0.00396163,-0.05725936,-0.014529584,-0.0746625,-0.050925512,0.001253068,-0.0626897,-0.012667362,0.012699078,0.003414598,0.039924968,0.009671452,-0.012658956,0.041320458,-0.006878215,-0.024494672,0.03335906,-0.04003643,0.028111178,-0.018913891,-0.062099066,-0.007359703,0.008913173,-0.011752635,-0.010263694,0.005163834,0.02920876,-0.022885466,0.01285248,0.00511795,-0.03639697,-0.07424587,-0.004853126,-0.036045704,-0.017775094,-0.059061415,-0.06826069,-0.035102393,-0.025144998,0.001101422,0.001349844,-0.03256812,0.004795464,-0.030862065,-0.018109763,0.001844787,-0.06701847,0.018335747,-0.03584696,0.011319019,-0.004312607,-0.025105584,0.016736222,0.00738841,-0.009469079,0.000580213,-0.033636466,-0.026907008,0.04514731,0.06686271,0.023469847,0.024903068,-0.025798772,-0.028160095,-0.05994998,-0.004207349,-0.001326929,-0.00369509,-0.026258029,0.23582904,0.02860625,0.020794852,0.012986948,-0.03227053,-0.027025735,-0.050310902,-0.005202943,0.04124513,-0.014088272,0.007150691,0.008216592,-0.023116989,0.020114798,0.04781211,-0.066754304,-0.03194433,-0.032104347,0.009257261,0.024698764,-0.006260393,-0.009063068,-0.048913453,0.010495107,-0.03094837,-0.007586148,0.013439667,-0.022384837,-0.00553472,0.005340644,-0.040580507,0.03965957,0.045863207,-0.015811613,0.054513898,0.02948059,-0.03879577,0.025914168,-0.017136987,0.005485695,0.29347596
BaZrO3,0.058689144,0.026951363,-0.02731611,-0.037155252,0.041901577,0.033165585,0.00067287,0.03658187,0.03437755,-0.017964223,0.022741849,-0.048928846,-0.07140577,-0.021432595,-0.035048183,-0.025954254,-0.023085177,-0.02500646,-0.04210444,0.007749981,0.12506351,-0.008721689,-0.015685344,-0.00097045,-0.00699879,0.006808139,0.009702374,0.014488687,-0.042115267,0.014695501,0.002393673,-0.038904928,0.08473365,0.018102167,-0.046421297,0.010282408,0.017664697,-0.005738251,-0.002482816,-0.007872455,-0.008574075,-0.014312725,0.00576078,0.012352179,-0.053992756,-0.02818665,-0.048864294,0.076242015,-0.03006272,0.006260742,0.03318594,-0.04632239,0.017950872,-0.019977106,-0.040388245,0.031425852,-0.006979986,-0.011221504,0.031419992,-0.009806073,-0.033144906,-0.02588754,0.025530614,-0.026234075,0.01637998,-0.027801571,-0.00370983,-0.096350536,0.002529818,0.005238904,-0.017788406,-0.02622289,-0.024934769,-0.002851548,0.007317004,0.02738968,0.02567393,0.011543332,0.007532946,0.013068344,-0.044216357,-0.034063175,0.002757032,0.026649415,-0.07800114,0.015482922,0.011370177,-0.065255605,0.034359254,0.1049378,-0.063354015,0.02535235,-0.00440717,-0.039735764,-0.004770096,0.044390686,-0.005285098,0.011068014,-0.061259855,0.043551408,0.012066786,0.044907916,-0.01113805,0.023030303,-0.056222014,-0.017836113,0.00814578,-0.008863676,-0.023020864,-0.020181263,0.006230454,0.004772777,-0.05561201,-0.015077013,0.09257909,-0.023675747,0.014981769,-0.01519482,-0.001636527,0.059929807,-0.03139449,0.029295396,0.067392565,-0.007048145,0.043489464,0.014531383,0.019882098,0.06792409,0.00423816,0.009559908,0.07318745,0.05160891,0.03905884,-0.04774343,-0.023239939,0.03700148,0.04353268,-0.00055359,-0.047261577,0.04669555,0.10237831,0.017294401,-0.000871922,-0.026047708,-0.06443663,-0.017178936,0.035718277,0.09951389,0.03473605,0.14441808,-0.033449505,-0.039073296,0.03101754,-0.002475194,-0.003788788,-0.07924777,0.06336964,-0.020593315,0.00689991,-0.020638973,-0.002149027,-0.028686,0.000104667,0.036335,-0.001052789,6.64E-05,-0.04343057,-0.046286307,-0.045655657,-0.015146863,-0.017298793,-0.027853513,-0.014692239,-0.021152854,0.008270761,-0.040284164,-0.029541116,0.019026026,0.06697865,-0.011305844,0.010951623,-0.052359518,0.015062925,0.000596164,-0.042389445,0.06467117,-0.0184643,-0.039842498,-0.012755246,-0.07406718,-0.0533044,-0.006315934,-0.001230539,0.15179715,-0.012153164,-0.005571685,0.05481257,-0.006919439,-0.035797298,-0.027677435,0.052051608,0.041696448,-0.015053785,0.09328143,-0.008950869,0.038822696,-0.003028076,-0.038686905,-0.029017892,-0.03934287,-0.000503757,0.007643196,-0.000911809,0.037962615,-0.006202245,0.008713448,-0.02388287,-0.039941587,-0.00324372,-0.002035562,-0.027352544,0.018327374,-0.020451913,-0.032175113,0.003252956,-0.01772452,-0.003223561,0.020980483,-0.061764248,0.025596237,0.015996924,-0.038116597,-0.019728532,0.054271877,0.002143671,-0.00037659,-0.0252753,-0.016533943,-0.011475598,0.015283559,0.015929982,-0.012835138,-0.020189863,-0.093424715,0.022541746,-0.022852434,-0.028660364,-0.09334438,-0.04552582,-0.0336307,0.014330655,-0.001181646,-0.002602922,0.041638676,0.07160902,-0.011605742,-0.002233136,-0.01938489,-0.031223511,0.014057274,-0.019228365,-0.00510206,0.002758519,-0.041968454,0.006851318,-0.013422418,-0.04379826,-0.005970679,-0.047930963,0.007761307,0.052137475,-0.012370864,0.002978548,-0.022779308,-0.024127197,0.005425694,0.023140956,0.008018946,0.02902854,0.13266085,-0.007037354,0.00860341,0.050817937,-0.012943499,-0.00994973,-0.036340266,-0.012923619,0.0096,-0.041181784,-0.040289026,0.08446749,-0.051436763,0.036571443,0.03341786,0.014905294,-0.018959105,0.13353679,0.025410568,0.002166478,0.02740498,-0.018029615,-0.007156608,-0.003305246,-0.020525714,-0.024999121,-0.018280441,-0.047813594,-0.0168908,0.053047206,0.01229578,-0.079670675,0.010568885,-0.002759552,-0.011076483,0.008741998,-0.032704152,0.043867387,-0.061134994,-0.044224143,0.015349077,-0.004168013,0.005132893,0.00482643,0.029881025,-0.024791976,-0.06506893,-0.00699191,0.011124367,-0.06232665,-0.027385075,0.004726648,0.009416823,0.015786132,0.013557604,0.018054195,-0.027648248,0.004840149,-0.043455586,-0.06424074,0.013488878,0.012440722,-0.01571819,0.018849654,-0.02538964,-0.012023388,-0.029733118,-0.006329808,-0.03228723,0.06050521,-0.02910716,-0.026258742,-0.044640746,-0.048869543,-0.066524476,0.033490196,-0.008696442,-0.044428147,-0.021811604,-0.03610899,-0.057465486,0.002167248,-0.048315015,-0.046563216,0.004105839,-0.022781163,0.04680424,-0.015670773,-0.017268803,-0.037828255,0.024800973,0.017429449,0.019246437,0.003473697,-0.020514762,0.06507644,0.11609111,-0.01970715,0.029295485,-0.008365283,-0.006512255,0.03371369,-0.002004633,0.106060125,0.003904659,-0.015221542,-0.0253611,0.016134834,-0.014404852,-0.021154098,-0.052414082,0.019811964,-0.007566621,0.039177608,-0.040937077,0.041091632,0.009201203,0.001148631,-0.016562114,0.012533724,0.060773388,-0.05781475,0.013665315,0.00829118,0.02420291,0.008710596,0.00898671,0.067801915,0.03475147,-0.014637795,-0.05335528,0.003409165,0.021491587,0.046217714,0.044403948,-0.00258767,0.02982273,-0.038085002,0.050603695,-0.005001691,0.019778062,-0.005678294,0.09036875,-0.08426169,-0.001957094,-0.005578212,0.029314043,0.021742364,0.056076925,-0.02640521,0.013689287,-0.000192837,-0.012141886,0.06213676,-0.032574236,0.021487942,-0.014356498,0.03304178,-0.026548393,-0.02013405,0.04387891,-0.039397705,-0.04294985,-0.010644716,-0.012655758,-0.055448238,-0.013087694,0.02816602,-0.024975426,-8.17E-05,-0.039600402,-0.052510276,-0.045441363,-0.04123822,-0.05873748,-0.003806487,-0.05808139,-0.024312502,0.011713854,0.022081885,0.008886566,-0.04240486,-0.030823493,-0.03674081,-0.013035382,-0.007101948,0.007794878,0.067825235,-0.03380393,-0.022018677,-0.002343828,-0.04289972,0.007990937,0.003507966,0.013732416,0.03067849,0.012875454,0.044282474,0.001187422,-0.001232131,-0.016788384,0.016041493,0.00553874,-0.003235519,0.006537633,0.030486526,0.007184036,-0.01610502,0.075626865,0.03826044,0.017987192,0.001103204,0.016629575,-0.06230446,-0.030678568,0.027751364,-0.004620116,-0.003327026,0.008018035,0.006946188,0.036990065,-0.07370953,0.01762006,-0.020443903,-0.0470261,-0.006568974,-0.010443886,0.016802225,-0.038899384,-0.052931003,-0.006429631,0.022176858,0.03473387,-0.012312111,-0.018102475,0.0363375,-0.035920322,-0.003451916,-0.01126142,-0.001861747,0.009997454,-0.029896226,-0.002964648,0.049598694,-0.020616785,-0.002379907,0.0120841,-0.031483993,0.03583691,-0.050057203,0.023846006,0.005668597,0.033534568,-0.016394112,0.03676865,-0.009749516,0.005516994,-0.000531914,-0.00029162,-0.04099501,0.018387029,0.028170895,-0.062385794,0.014729753,0.051314868,-0.0646754,-0.032057997,0.03236777,-0.03352929,-0.016349746,-0.01800756,-0.014069662,-0.04123835,0.013870649,-0.038689677,-0.002854534,-0.031308807,0.024927985,-0.004403733,-0.058795333,-0.028218875,-0.002404505,0.037904117,0.009106702,-0.057816148,-0.022958059,-0.017186563,-0.00206053,0.006967225,0.06927996,-0.04166453,-0.013635171,-0.013388072,0.049626153,-0.033300426,-0.05262917,0.01142625,-0.029527288,-0.057356287,-0.025332635,-0.000592901,0.02177154,-0.009819515,-0.01629028,0.05792939,-0.056675818,0.026949963,0.0447406,-0.07082267,-0.006082965,-0.003738046,-0.047243092,-0.015956229,0.05119885,0.00157192,-0.06076709,0.15766963,-0.045887683,0.007301704,-0.043933403,-0.021587359,0.010044497,-0.02053124,-0.033111237,-0.048117876,-0.012004588,-0.037998416,-0.026783483,0.11047784,0.004682067,0.033717763,0.000842882,0.009598242,-0.015608346,-0.032193225,0.015001613,-0.043999784,0.017695487,0.05288544,-0.010854391,-0.027049497,0.022831937,-0.06186422,0.020862805,-0.026699588,-0.020431599,0.017407443,-0.01724841,0.0502412,0.058944546,0.014735406,0.062029775,-0.05591104,0.06031854,0.066825435,-0.025007699,-0.00162172,0.016628344,-0.006733809,0.002094521,-0.038348194,0.06598969,-0.057273954,0.016557392,0.026298573,0.009724886,-0.008627338,0.03101368,0.008736082,0.06685639,0.014999663,-0.023035353,0.016970066,-0.038880732,0.000611936,0.027935982,0.001653813,-0.048526082,0.025386423,-0.037839543,0.005536421,-0.03520396,-0.037499283,0.017291693,0.04363293,0.001748296,-0.004561463,-0.009717039,0.015600766,-0.00384494,-0.035897452,-0.016041664,0.011564954,0.06604785,-0.03212997,0.005890266,-0.05810875,-0.05220498,-0.056405995,-0.020318596,0.027361508,0.031164534,0.026773926,0.00062822,-0.03686067,0.009004159,0.0367832,-0.005512174,-0.01732204,-0.014384474,-0.016456572,0.024161758,0.06421754,-0.069421805,0.06275013,0.019888325,-0.035165105,-0.034160815,-0.06408409,0.001166114,-0.01660104,-0.004989248,-0.008753871,-0.07323684,-0.015797276,-0.027365714,-0.045246705,0.050508477,-0.002203098,0.052605003,-0.038178127,-0.009217883,0.00891436,0.08642296,-0.09547784,-0.08088522,-0.077914104,-0.038964096,-0.027173532,0.122419834,-0.039284814,0.009877212,0.03279051,0.01163271,0.01366384,-0.034713287,0.015426778,-0.051597204,0.0415285,0.13267112,0.04550193,-0.012623811,-0.09394978,0.009341972,-0.012497557,-0.055888094,0.044158258,-0.02194471,-0.03096093,0.046324387,-2.69E-05,0.015240266,0.015064631,0.075051785,-0.010343739,0.037469115,-0.022942157,0.023817604,-0.04239011,0.001101159,-0.010678027,0.05333049,0.009617527,-0.04887278,-0.032630395,-0.003300897,-0.017654564,-0.045959815,-0.001609916,0.023867806,-0.002017539,-0.027787456,-0.021699578,0.01833227,0.046808768,-0.018646806,0.00845228,0.006162299,-0.022182535,0.2894603
SrFeO3,0.055361003,-0.031218335,-0.031533025,-0.006218388,0.037650403,0.030171938,-0.020804493,-0.04435914,0.001218719,0.003733471,0.02867727,-0.054811873,-0.058657635,0.0103355,-0.03130063,0.011594052,0.019238293,-0.05310671,0.020048326,-0.075272314,0.15124518,-0.042459708,0.009685861,-0.046520453,0.005268525,-0.00127329,-0.000108758,0.015277349,-0.03597129,0.020874994,0.038091585,-0.012408657,0.099393934,-0.030180369,-0.025454814,-0.017911233,-0.005422787,-0.0014657,-0.01260387,0.0026949,-0.023977684,-0.05890178,0.002868453,-0.015490565,-0.030646278,-0.022944208,0.012692662,-0.011619763,0.027641652,0.023265665,-0.03070167,0.021618683,-0.015596651,0.024366595,-0.04269025,0.006259639,0.07661478,0.009729454,0.008382322,0.001289664,0.047876522,-0.03382464,-0.020178305,-0.034404114,0.020929806,-0.014050262,0.005671653,-0.008157319,0.0291499,-0.010267483,0.001839239,0.017106242,-0.069692396,0.036745373,-0.006793228,-0.002144602,-0.011178738,0.003960653,0.00101558,0.000488496,-0.014030393,-0.02482899,-0.006210981,0.070908524,-0.0561966,-0.011480272,0.026567392,0.023004664,0.027935898,0.1524095,-0.019830106,0.015762448,-0.03939405,0.001680059,0.026864635,-0.04027566,-0.010534277,0.043409724,-0.053546775,0.032216128,0.02607822,0.006875199,0.029199742,0.03931589,-0.024719365,-0.001899251,-0.026363697,0.036623646,-0.0490008,0.020653829,0.010835754,0.009561454,0.000636057,-0.007488323,0.04954594,0.017126707,-0.017276803,0.025861923,0.03064282,0.11244392,-0.03874546,-0.001492394,0.022605244,0.001836929,0.000839444,0.002909085,0.013769803,0.044545792,-0.01567795,-0.03261139,0.09589788,0.015808051,0.009179264,0.0226549,-0.056386784,-0.012831038,0.00468019,-0.028549619,0.016755547,0.090107284,0.106639974,-0.022620011,0.008105393,0.038177308,0.010407452,0.000742221,0.027153661,0.08540652,-0.045145586,0.1134972,-0.009275935,-0.009998686,0.016986962,0.0295831,0.010297366,-0.06329928,-0.08535135,-0.001231397,0.049620207,0.01135095,-0.019025642,-0.02633513,-0.002006123,-0.038111668,0.002581992,0.04155604,-0.021194145,0.000771252,-0.008533434,-0.043914925,-0.007480304,0.001178619,-0.01621418,0.018082378,-0.056099027,-0.014330529,-0.010298114,-0.010536994,-0.04630218,-0.010920605,-0.016975293,-0.062065184,0.05118861,-0.010718286,-0.008645307,0.028697263,-0.008323102,0.024711205,0.004846213,0.010060299,-0.04772509,0.018010277,-0.05712457,0.12521203,-0.008364953,-0.048136134,0.005541673,0.009056782,-0.075388014,0.02692346,0.038627278,0.030342402,0.00545847,0.005883307,-0.000197953,0.05134014,-0.036128517,-0.017205989,0.002716468,0.006319164,-0.004302242,-0.04043506,-0.040580373,-0.005968967,-0.040694542,-0.081337534,0.004363243,0.024823453,-0.032227855,-0.039528117,0.016676009,0.009071819,0.041746024,-0.002739932,-0.031486757,0.012090176,-0.008757207,-0.003096581,-0.062262665,-0.021913327,-0.013394871,0.000213558,0.058234457,0.005811006,-0.043612875,0.003835796,-0.006128745,-0.025432047,0.026336733,0.012167823,-0.003486946,-0.044128805,0.003794813,-0.008966214,0.003541467,-0.009106436,-0.04511784,0.016265124,-0.045708496,-0.06345769,-0.035013873,-0.013159701,0.038544126,-0.006814946,0.018253172,-0.019891566,0.024993608,0.033890564,-0.013397468,-0.003118387,-0.041226756,-0.00604391,0.009863173,-0.032663118,0.043395065,-0.013269644,-0.03029457,0.005051579,0.01193528,0.031640626,-0.001585195,-0.048251335,-0.013846424,0.061420836,-0.009892183,-0.0181268,-0.015265657,0.021957446,-0.004176475,0.078738526,-0.010526812,0.003585188,0.006086586,-0.000910268,0.025893357,0.01645001,-0.02387953,0.00281533,-0.03464388,-0.036234744,0.0429687,0.02691329,-0.010583334,0.037503563,0.010858612,0.021686442,0.11920619,0.030662669,0.010171793,0.01103039,-0.03494893,-0.000367444,-0.05991683,-0.022532584,0.001772255,-0.047363285,-0.025279282,0.012779481,-0.000668009,0.023050707,-0.033882838,0.016085288,0.026362147,0.004051311,0.09748171,-0.000534582,-0.04259964,-0.0374429,0.057959773,0.032793228,-0.014530472,-0.021248376,0.043410696,-0.005521958,-0.013264448,-0.003223439,0.0807934,-0.002803415,0.026055193,0.004067536,-0.010836126,-0.017417267,-0.041982543,0.031020341,0.020377086,-0.026449608,-0.004974179,0.000597957,-0.001620538,0.007582755,-0.020054178,0.054483104,0.013412611,-0.031250894,0.01346569,0.00556118,-0.013703525,-0.06696268,0.091970846,-0.0690187,0.003415132,-0.012700494,0.03318169,-0.02167174,0.039017554,0.014647395,-0.004591894,-0.000810369,0.008862752,0.001473634,0.024828553,-0.037529405,-0.05916274,0.03767079,0.047577754,-0.007074948,-0.015013461,0.005543068,-0.04609787,-0.01099867,-0.004320868,0.03390375,0.060295425,-0.009176777,0.1251457,0.0380458,0.008507797,-0.020269929,0.021800099,-0.02910574,0.048529956,-0.05239269,0.045823507,-0.022903481,0.020651659,-0.052375138,-0.02386929,-0.059654362,-0.006136702,-0.04164217,-0.019588957,-0.03585336,0.034728393,0.038628828,-0.009187757,-0.01445129,-0.07516033,-0.02588389,-0.052515145,-0.00995767,0.004168744,0.019245934,0.0465616,0.025071813,-0.026999751,-0.038859487,-0.028876625,-0.035027314,0.018183932,-0.002714486,-0.029294137,0.011527699,0.005289534,0.000482908,-0.051421445,0.032136664,0.021491691,0.016689682,-0.038088422,-0.007070832,0.021333044,0.059953485,0.007179971,-0.053720724,0.04615022,-0.043317243,-0.019308973,-0.03858983,0.017868064,0.016609197,-0.048031345,0.02853585,0.08137649,-0.06970576,-0.019091936,-0.06206609,0.00524212,0.020733196,0.011038696,-0.037246767,-0.014054227,0.015875591,-0.017530855,-0.022877889,-0.022286009,-0.023998296,-0.030736,-0.03957112,0.020832684,0.001048285,-0.000129806,-0.023296969,-0.029026069,-0.030413898,-0.092284344,-0.019636873,-0.026450992,-0.046629112,0.000905906,0.003356387,0.004335204,0.01907312,0.001098831,-0.026872035,-0.012779853,-0.04049688,0.001306963,-0.0439343,0.003021835,-0.042122185,-0.037058085,0.054007214,-0.019439535,0.017581457,0.019798905,-0.007377973,-0.030211754,-0.025771212,0.032563128,0.00552434,0.011568384,-0.027192323,0.015566885,-0.04251493,-0.021228915,-0.028548585,-0.010341169,0.049903866,-0.011170018,-0.088435255,-0.006501189,-0.006530654,-0.002775402,0.003049455,0.051082533,0.005770125,0.016633544,0.0481599,0.004342829,-0.012767246,-0.01972164,-0.002500157,0.033709545,-0.011526307,-0.033005755,-0.02960655,-0.012470949,-0.013882306,-0.008303091,-0.017074008,-0.016881404,-0.047599003,0.017091999,-0.006641612,-0.06020306,-0.04684125,0.033825845,-0.02082222,-0.056574747,0.01044027,8.46E-05,-0.045985162,-0.016750634,0.035244223,-0.038724836,-0.003154621,-0.018477771,-0.018938197,-0.034841564,0.037043042,-0.014049387,-0.07755079,0.06475471,-0.003800795,-0.028953006,-0.001174928,-0.06996968,-0.026415553,0.004226681,-0.046366714,0.000106221,0.011961799,-0.02265337,-0.002626554,-0.02896093,0.024339681,-0.014583285,0.011089909,0.025758492,-0.011689719,-0.015330193,0.006234964,0.019405091,-0.027620092,0.00902398,-0.007516197,0.025472745,-0.021641504,-0.017110882,-0.002840818,0.004236575,-0.024738498,-0.011870182,0.023836298,-0.058758028,0.00826018,0.000345115,0.046356898,-0.007287234,-0.0173229,-0.027180504,-0.015908098,0.03386113,0.005511113,0.014166838,-0.04690494,0.020717701,-0.016651424,0.037382185,-0.00927546,-0.057103816,0.009086513,-0.051452253,0.10620106,0.033416074,0.024797924,-0.03763851,-0.036312103,-0.05228771,-0.001368528,-0.04041456,0.011023202,0.003353967,0.01448888,-0.031871747,0.15132928,0.005566655,-0.015765408,-0.061174154,-0.008524671,0.015855495,-0.033183273,-0.033730794,-0.011292959,-0.02249173,0.022744244,-0.004907015,0.072496116,-0.011291367,-0.019306002,-0.005895414,-0.057985865,0.023646126,-0.034956455,-0.003408201,-0.017480792,-0.010138585,-0.07288305,0.043615326,-0.03992331,0.06303569,-0.011786122,0.032548636,0.041911047,0.04233002,-0.006069101,0.001961943,-0.020869998,0.030320456,-0.03993465,0.06547656,0.035345502,0.041637238,-0.020756809,-0.008079922,-0.059591062,-0.004470838,-0.021885308,-0.034995787,-0.040483203,0.007501106,0.00069971,0.003382498,0.05189622,-0.031278335,0.004265795,0.082250886,0.017641934,0.07587574,0.008401957,-0.03873941,-0.045631114,-0.00664172,-0.018889211,-0.027901888,0.025483286,-0.058628913,-0.056846634,-0.002833074,0.033243325,0.022596786,-0.018101845,-0.053768747,-0.011425234,-0.011332762,0.020146726,-0.027163478,-0.009428992,-0.024820575,0.002128311,0.005563036,-0.019387092,0.01054641,-0.062213648,0.004376827,-0.030113876,-0.02378266,-0.008589358,-0.012353199,0.004931272,0.012696244,0.04219451,0.014742518,-0.020243963,0.02031969,0.040531382,-0.00109851,-0.016888887,-0.042251475,-0.034009017,-0.014997015,-0.02185351,-0.028074434,0.006227103,-0.002392936,-0.025541795,0.028218327,-0.01812064,-0.026204316,0.020907873,0.000113552,0.010030737,0.062073275,0.04643104,-0.011555848,-0.034292746,-0.019484483,-0.013790937,-0.016371371,-0.011824538,0.004469936,-0.042899847,-0.015860815,-0.012933685,-0.053528525,0.024837833,-0.026891485,0.021456009,0.13224365,-0.017966984,0.004905765,-0.004892895,-0.021668898,0.016528748,0.003172707,0.012565292,-0.029247517,-0.004162243,0.19593632,0.052968025,-0.022761645,-0.018294372,0.001053004,-0.041704394,0.000122035,0.031039909,0.002592425,-0.008125413,0.023017373,-0.021271784,-0.041325845,0.027116567,0.06457449,-0.033907473,0.00696211,0.032294784,-0.031011784,-0.02867521,0.0682711,-0.047461882,0.008538696,0.036240183,0.021355074,0.02368408,-0.013333277,0.009695993,-0.04899667,0.016375262,-0.03413405,0.010243763,-0.055221584,-0.04199024,-0.016357945,-0.007666442,-0.028588915,0.004222752,-0.03743104,-0.023390263,0.28877857
LaCrO3,0.014210439,-0.01348668,-0.028693948,-0.049138464,-0.028956905,-0.021575537,-0.017116712,-0.007663405,-0.008599465,-0.005256072,0.019740328,-0.037220377,-0.039560977,-0.04706023,0.025472663,-0.002946362,0.013091314,-0.052483868,-0.038432512,-0.04782008,0.13344441,0.025950044,-0.016892945,0.033350907,-0.037871327,0.029316569,0.006006233,0.014245781,0.006520178,0.051860612,0.029544687,0.005031202,0.082308285,-0.03990167,-0.022567006,0.001497327,0.011620663,-0.010734689,-0.019690314,0.001759115,0.015234492,-0.044468965,-0.063366875,-0.02289708,-0.00517379,0.019537894,-0.043451287,0.052111305,0.02472004,-0.02973053,0.056243308,-0.005965272,0.006953434,-0.016833642,0.003234723,0.018904245,-0.015439851,0.003245977,-0.001793973,-0.004967837,-0.010100158,0.006815693,-0.026212277,-0.002557731,0.019788386,-0.006655315,-0.0246209,-0.034401484,-0.0639803,-0.0328957,0.002372452,-0.054458037,-0.054216534,-0.000665543,-0.054535348,-0.02077119,-0.002977836,0.04650849,0.030678026,-0.015043356,-0.04351701,-0.030951584,-0.003649721,0.055005085,-0.030542288,-0.027331455,-0.014943884,-0.011093184,-0.002900892,0.10822359,-0.01502037,0.00386552,-0.001586375,-0.025520993,0.010865521,-0.000553459,0.03608699,-0.020048333,-0.055387236,0.006144617,-0.029799366,0.003592826,0.016336983,0.028711684,-0.015087659,0.015275526,0.028382571,-0.00715675,-0.08178014,-0.04759567,0.017755423,0.025771532,-0.028274538,0.003546075,0.05946704,0.042293,-0.04210004,-0.013911297,-0.016248625,0.06820289,-0.038448714,0.032429606,0.023112543,-0.01496945,0.014026499,0.00239587,0.007454857,0.059079055,-0.009517813,-0.05640914,0.076960385,0.020085089,-0.017795078,0.04037937,0.013845445,0.009107185,0.003751247,-0.07549393,0.025842352,0.118747614,0.053559214,0.01345575,0.016233193,-0.026097149,0.014303285,-0.0869143,0.00733838,0.103344284,0.022901332,0.08443066,-0.002204981,-0.023256294,0.045212608,-0.05210301,-0.024976553,0.006063856,0.054427214,-0.04390009,0.010838344,-0.03235207,-0.002394148,0.008850562,0.06093643,0.012669409,0.028627647,-1.36E-05,-0.014891611,0.008647397,-0.01809281,0.011925792,0.006329029,0.000721042,0.007657311,-0.02713521,-0.050703686,-0.025796548,-0.030860798,-0.025271699,-0.04505774,-0.02745626,-0.045087654,-0.020602373,-0.039675098,0.009962936,0.059201397,-0.040773273,-0.009186894,-0.0438455,-0.020935139,-0.05345025,-0.027106766,0.0053748,-0.002168918,0.1257021,-0.06614186,-0.03579688,-0.028463917,-0.050845105,-0.002673198,0.010741903,0.053083476,0.03789347,-0.070457935,0.012572522,0.006795775,-0.06935436,-0.007165083,0.006551164,0.000415871,0.016564775,0.007700047,0.026661064,-0.058454722,-0.010958783,0.016466726,-0.017178286,-0.02490271,-0.002781293,-0.014381602,0.0156324,-0.001933316,-0.053632684,-0.036728606,-0.009924751,0.021796215,0.007105756,0.018096764,-0.019811511,-0.10590832,0.018732445,0.07640927,-0.048745915,-0.0197832,-0.03595796,-0.03105183,0.012386521,-0.006806466,0.020999253,0.004936691,-0.047406048,0.024751578,0.0346178,-0.03904982,-0.032908376,-0.012402304,0.001181395,-0.04975353,-0.02051813,-0.041408714,-0.008149084,0.010209611,-0.044527657,0.019733721,0.026867438,0.036043778,-0.00393266,0.004050061,0.024868673,-0.040541425,0.008233716,0.052338276,0.018109519,-0.010790559,0.062907726,-0.016067505,0.018264893,0.009138709,0.02734142,-0.04085551,0.029686593,-0.028090227,-0.008636766,0.008329196,0.005413671,-0.040709578,-0.03099106,0.014750099,-0.010724035,-0.013864727,0.10274037,0.010774593,-0.01071104,0.028014587,-0.048992913,-0.001588547,-0.01221753,-0.02864346,-0.04986122,0.009869324,-0.029521106,0.06309941,-0.008550195,0.011769667,0.009596255,0.002589985,0.005014042,0.12802696,0.031446982,0.038306616,0.04332188,0.039650735,-0.03905315,-0.035225477,-0.030950049,-0.034502562,0.005027125,-0.04536631,-0.03346468,-0.007139436,-0.013051019,0.010884501,1.08E-05,0.027333548,-0.056215886,0.025438096,-0.038166467,-0.044347152,-0.027684927,-0.075006634,0.006697812,0.006476504,0.007522787,-0.019237464,0.041237023,0.013071944,-0.012367461,-0.008236554,-0.00928918,0.070286795,-0.006149977,-0.019858412,-0.003936461,0.003731191,0.014435395,0.007032314,0.032706615,0.009983472,-0.06461914,-0.027442781,0.05994912,-0.050485577,0.009436707,-0.002546114,-0.017987749,-0.01958534,-0.05541772,0.029180512,-0.09409576,0.036407158,-0.027102608,-0.023323499,0.035829436,-0.0002783,-0.047722757,0.031065727,-0.028843613,-0.05116863,-0.05895361,-0.021371532,0.027559051,-0.005677745,-0.009822113,-0.039668314,0.031066015,-0.001340119,0.035021827,-0.024836114,0.017852008,0.01673402,-1.07E-05,0.011585922,0.07558137,0.01872001,-0.050156623,0.040994253,0.08336806,0.007343575,0.002690023,0.006391743,0.00092152,0.002837179,0.02395695,0.020750837,-0.06534766,-0.001753083,-0.007701765,-0.025043054,-0.08769833,-0.020782819,-0.012861885,0.005524075,-0.01636864,0.021124061,-0.028019119,-0.026824554,0.009063291,-0.002602053,-0.018826652,-0.0613775,-0.015682602,-0.037454005,0.018544268,0.01444489,0.03671876,0.01671556,-0.015671598,0.005974113,-0.015386961,0.01475201,-1.40E-05,0.058288157,0.03346785,0.0789433,-0.001762039,-0.08091443,0.01639017,0.00492497,0.003421462,-0.01726371,-0.008139835,0.015566793,0.06115778,-0.036183394,-0.054842576,-0.019496677,-0.006706331,-0.013981521,-0.015766833,-0.01009154,0.034190215,-0.008568403,-0.011456955,0.028097678,-0.036914524,0.0144578,-0.023117563,0.036220215,0.035495274,0.01229775,0.011686492,0.011642877,-0.020225454,-0.045569744,0.012979092,-0.036537204,-0.024123695,0.006427824,0.001223489,-0.017932275,-0.006279458,-0.019154802,0.018627554,-0.03198063,0.001701823,-0.007732668,0.034073457,-0.043435365,-0.023216223,0.022977922,-0.015855059,-0.035993613,0.007520887,0.030968498,-0.034371953,-0.000966886,0.018942429,-0.010884611,-0.011954233,-0.098553106,-0.054063335,-0.028101012,0.000777597,-0.07918659,-0.023810772,-0.003283059,-0.016027791,0.0918756,-0.06686723,0.018481886,0.047083434,-0.034557685,-0.008686262,0.028910093,-0.014310799,0.01791209,-0.037866022,-0.047576766,0.036008336,-0.00113381,-0.032192748,-0.034842957,0.011981783,-0.009658228,-0.057516813,-0.02928951,0.01600567,-0.003617674,-0.027050683,0.008224099,0.04021098,-0.006500772,-0.056409188,0.0395321,-0.02036675,-0.01381721,-0.01188276,0.020416578,0.024690622,-0.014446644,-0.003323251,-0.002004037,-0.004457513,-0.010261028,-0.044764113,0.019289823,0.007763105,0.009810438,0.013507537,0.0099322,0.015636636,0.007576316,0.065241165,-0.03141025,0.011480923,0.024077082,0.009739313,-0.045948174,0.034018144,-0.03746453,-0.06453614,0.010528147,-0.005596251,-0.03038563,0.061759368,-0.005350307,-0.040281102,-0.025930725,-0.02704284,-0.044783786,-0.012947478,0.016136155,0.003310321,-0.019376148,0.003480895,0.019886939,-0.016304072,-0.011170538,0.04018699,-0.053471148,-0.06364339,-0.005629838,-0.045114163,0.02383008,-0.06320462,-0.002542008,-0.024004271,-0.039095663,0.00526626,-0.053617097,-0.017166657,0.034577303,-0.023131182,-0.036370303,0.018769505,-0.019717451,-0.031149067,0.014840721,0.000272055,-0.000250988,-0.024302578,-0.009340374,-0.010611312,0.028781775,0.00995222,-0.04051832,0.013501311,-0.001663119,-0.03442816,0.054691803,-0.00465108,-0.022838399,0.040406607,0.004706333,0.09994447,-0.04070184,0.02184885,0.022601752,-0.030631987,-0.054752555,0.027619757,0.02025071,-0.010880248,0.013935904,0.00703848,-0.025144784,0.1274646,-0.023792181,-0.027328001,-0.04600253,-0.001027031,-0.03715438,-0.060836412,-0.057000924,-0.03167694,0.028395545,0.0398584,-0.052119706,0.04220735,-0.03908507,7.93E-05,0.012246824,0.012489341,0.05430628,0.054528818,0.021992754,0.004371283,-0.019162448,0.002517549,0.06615551,-0.012656062,-0.013305439,0.000108628,-0.019135002,0.020212617,0.018407399,0.013835261,-0.004166525,-0.002470316,-0.025268264,-0.010911454,0.06544961,0.024749951,0.09682624,-0.007757736,-0.021635594,0.001383676,0.02030303,-0.002863889,6.26E-05,0.031936917,-0.013581354,-0.009205547,0.010421946,0.027077217,-0.023769284,0.007988082,0.052199446,0.037758604,0.06718034,0.028417896,-0.059027553,-0.016137252,-0.007512985,-0.05923719,-0.002422307,0.04422491,-0.028911166,-0.001865557,0.057127748,-0.024525972,0.001715423,0.008676453,0.025662696,0.01258451,0.031940002,0.016652504,-0.06766568,0.00161756,0.01282756,0.00080931,0.008450373,-0.019388463,0.013689102,-0.006847862,0.05280904,-0.024790928,-0.057363167,0.001438978,-0.000563654,0.00153093,0.059916776,-0.003162722,-0.007297339,-0.028833903,0.02711395,0.031166758,-0.008771538,0.040863298,0.004701315,-0.029104251,0.03280889,-0.026353955,-0.021956641,0.020510739,-0.022750298,-0.09223885,-0.022230266,-0.005967382,-0.03492769,-0.008670848,-0.03746191,-0.032153223,-0.009248478,-0.015731303,-0.016661683,-0.003784018,0.029284274,-0.002169788,-0.00363387,-0.01123804,-0.08076844,-0.029754769,-0.023854675,-0.023044867,-0.04807964,0.03847744,-0.02586588,0.014509358,0.11399327,-0.02024509,0.025290692,-0.017094146,-0.02113932,0.016953658,-0.007351414,-0.009395123,0.00701804,0.015636634,0.14588067,0.019784456,-0.05780459,-0.03811542,-0.033894524,-0.064540334,-0.049929317,-0.02068824,0.033412207,0.003307869,-0.03125893,-0.004980888,-0.00611588,0.037053958,0.037115928,-0.01515698,0.0881921,-0.046041295,0.007238184,-0.02675157,-0.007776487,-0.036196053,-0.001121862,-0.043924477,-0.011320645,-0.023912404,-0.06535594,-0.005529068,0.007345932,-0.036838938,0.02364574,-0.022506919,0.020587508,-0.045687385,0.03846893,0.008711496,0.028691871,-0.007381175,-0.010863766,0.018628737,0.28852916
